tree
version=v3
num_class=1
num_tree_per_iteration=1
label_index=0
max_feature_idx=2
objective=regression
feature_names=Column_0 Column_1 Column_2
feature_infos=[22:81] [118.5:363.14999999999998] [29.5:77.75]
tree_sizes=914 939 938 938 933 854 942 935 944 941 939 861 945 866 865 867 949 941 943 954 956 1037 955 958 955 956 876 959 869 955 949 960 956 879 877 882 953 954 882 959 878 954 1054 962 1035 958 957 963 965 874 961 966 959 959 959 871 875 961 875 963 877 883 882 961 962 879 880 1037 875 965 876 883 960 964 968 968 962 880 879 884 882 969 966 876 960 877 961 966 883 884 1042 961 1034 960 965 1045 959 959 882 968

Tree=0
num_leaves=10
num_cat=0
split_feature=1 1 2 2 1 2 2 1 0
split_gain=4909.17 1840.33 993.636 956.827 412.501 330.399 247.305 176.775 10.3055
threshold=161.12500000000003 191.25000000000003 70.375000000000014 71.875000000000014 146.37500000000003 69.375000000000014 72.875000000000014 176.50000000000003 47.500000000000007
decision_type=2 2 2 2 2 2 2 2 2
left_child=4 3 -3 7 -1 -6 -4 8 -2
right_child=1 2 6 -5 5 -7 -8 -9 -10
leaf_value=18.135714235621787 19.15253242070197 20.371623290724742 19.792380887547893 18.631868063188154 18.850541820570818 18.322214226561879 19.368214235748979 19.509047567787412 19.251714240449765
leaf_weight=25 22 22 27 26 29 20 28 33 20
leaf_count=25 22 22 27 26 29 20 28 33 20
internal_value=19.1508 19.4354 19.8036 19.1546 18.4663 18.6349 19.5764 19.3358 19.1998
internal_weight=0 178 77 101 74 49 55 75 42
internal_count=252 178 77 101 74 49 55 75 42
is_linear=0
shrinkage=1


Tree=1
num_leaves=10
num_cat=0
split_feature=1 1 2 2 1 2 2 2 1
split_gain=3976.43 1490.67 804.846 777.759 334.126 276.901 200.317 124.472 119.147
threshold=161.12500000000003 191.25000000000003 70.375000000000014 72.125000000000014 146.37500000000003 68.875000000000014 72.875000000000014 68.125000000000014 176.50000000000003
decision_type=2 2 2 2 2 2 2 2 2
left_child=4 3 -3 7 -1 -6 -4 -2 -9
right_child=1 2 6 -5 5 -7 -8 8 -10
leaf_value=-0.91357141590118407 0.37301478564739227 1.0987467538226736 0.57742855593010234 -0.49360348756114647 -0.17805418491363526 -0.66172124065201865 0.19567857400647232 -0.049345828881186826 0.24093055839721977
leaf_weight=25 20 22 27 24 20 29 28 31 26
leaf_count=25 20 22 27 24 20 29 28 31 26
internal_value=0 0.256125 0.587558 0.00344837 -0.616085 -0.464306 0.383083 0.158374 0.0830609
internal_weight=0 178 77 101 74 49 55 77 57
internal_count=252 178 77 101 74 49 55 77 57
is_linear=0
shrinkage=0.1


Tree=2
num_leaves=10
num_cat=0
split_feature=1 1 2 2 1 2 0 2 1
split_gain=3236.24 1115.21 762.779 659.753 328.772 258.246 231.436 135.526 38.1811
threshold=162.87500000000003 191.25000000000003 71.875000000000014 70.125000000000014 146.37500000000003 68.625000000000014 40.500000000000007 68.625000000000014 176.50000000000003
decision_type=2 2 2 2 2 2 2 2 2
left_child=4 2 7 -3 -1 -6 -5 -2 -9
right_child=1 3 -4 6 5 -7 -8 8 -10
leaf_value=-0.82221427726745611 0.37888072828451791 1.0229629695415496 -0.45774163368344312 0.081341668106615542 -0.11911142637783832 -0.55881535752731215 0.50355965617440035 -0.0015379873414834342 0.18309743773369563
leaf_weight=25 24 20 25 20 22 34 37 24 21
leaf_count=25 24 20 25 20 22 34 37 24 21
internal_value=0 0.246641 0.0155078 0.528803 -0.520686 -0.386075 0.355413 0.186975 0.0846252
internal_weight=0 171 94 77 81 56 57 69 45
internal_count=252 171 94 77 81 56 57 69 45
is_linear=0
shrinkage=0.1


Tree=3
num_leaves=10
num_cat=0
split_feature=1 1 2 2 1 2 2 0 1
split_gain=2623.21 973.904 536.335 508.332 216.747 203.707 158.429 105.375 91.5028
threshold=161.12500000000003 191.25000000000003 70.375000000000014 72.125000000000014 146.37500000000003 69.375000000000014 72.875000000000014 55.500000000000007 170.00000000000003
decision_type=2 2 2 2 2 2 2 2 2
left_child=4 3 -3 7 -1 -6 -4 8 -2
right_child=1 2 6 -5 5 -7 -8 -9 -10
leaf_value=-0.73999284172058111 -0.11557598873972892 0.89321680123155778 0.48183990634149976 -0.39804783898095292 -0.20882125521271397 -0.62366775512695316 0.14234188120546085 0.3140074036338113 0.15255652061530522
leaf_weight=25 20 22 27 24 29 20 28 22 35
leaf_count=25 20 22 27 24 29 20 28 22 35
internal_value=0 0.208028 0.475922 0.00379181 -0.500392 -0.378146 0.309005 0.129041 0.0550538
internal_weight=0 178 77 101 74 49 55 77 55
internal_count=252 178 77 101 74 49 55 77 55
is_linear=0
shrinkage=0.1


Tree=4
num_leaves=10
num_cat=0
split_feature=1 0 1 2 2 1 2 1 2
split_gain=2137.32 940.945 835.492 328.751 288.695 213.258 183.059 139.82 36.6516
threshold=162.87500000000003 33.500000000000007 184.50000000000003 70.375000000000014 71.375000000000014 146.37500000000003 68.625000000000014 211.12500000000003 69.125000000000014
decision_type=2 2 2 2 2 2 2 2 2
left_child=5 -2 4 -4 8 -1 -7 -5 -3
right_child=1 2 3 7 -6 6 -8 -9 -10
leaf_value=-0.6659935588389635 -0.29806481033803955 0.28331793951136724 0.84113870412111291 0.25327893296877541 -0.27041181854903701 -0.089966172792694796 -0.46016786939957566 0.58518401325087666 0.10059243984844374
leaf_weight=25 31 21 24 30 20 22 34 22 23
leaf_count=25 31 21 24 30 20 22 34 22 23
internal_value=0 0.200437 0.31082 0.534997 0.0446104 -0.423146 -0.314731 0.3937 0.187802
internal_weight=0 171 140 76 64 81 56 52 44
internal_count=252 171 140 76 64 81 56 52 44
is_linear=0
shrinkage=0.1


Tree=5
num_leaves=9
num_cat=0
split_feature=1 0 1 2 2 1 2 1
split_gain=1741.84 804.782 596.829 266.289 211.019 197.593 207.626 113.254
threshold=165.75000000000003 33.500000000000007 184.50000000000003 70.375000000000014 71.125000000000014 146.37500000000003 68.625000000000014 211.12500000000003
decision_type=2 2 2 2 2 2 2 2
left_child=5 -2 4 -4 -3 -1 -7 -5
right_child=1 2 3 7 -6 6 -8 -9
leaf_value=-0.5993942165374756 -0.26825833224481149 0.19924845453855156 0.75702482773146285 0.22795104344685871 -0.19763583299659548 -0.03610019410649936 -0.4117984970149241 0.52666561156511305
leaf_weight=25 31 37 24 30 21 24 38 22
leaf_count=25 31 37 24 30 21 24 38 22
internal_value=0 0.190907 0.297131 0.481497 0.055549 -0.362064 -0.266367 0.35433
internal_weight=0 165 134 76 58 87 62 52
internal_count=252 165 134 76 58 87 62 52
is_linear=0
shrinkage=0.1


Tree=6
num_leaves=10
num_cat=0
split_feature=1 1 0 2 0 1 0 0 1
split_gain=1418.82 627.037 476.72 288.136 212.126 189.417 133.369 88.4312 26.9156
threshold=161.12500000000003 202.37500000000003 33.500000000000007 71.625000000000014 57.500000000000007 184.50000000000003 49.500000000000007 44.500000000000007 149.00000000000003
decision_type=2 2 2 2 2 2 2 2 2
left_child=6 2 -2 -3 5 7 8 -4 -1
right_child=1 3 4 -5 -6 -7 -8 -9 -10
leaf_value=-0.55396397567930677 -0.39733334623631977 0.73968238546734766 0.055893461522646251 0.24579488281850465 0.40041461803696371 0.25623592009147006 -0.19088381749612315 -0.19511890134215357 -0.40175009283881924
leaf_weight=21 21 21 32 27 22 30 27 25 26
leaf_count=21 21 21 32 27 22 30 27 25 26
internal_value=0 0.152992 0.0389447 0.461871 0.122998 0.0528471 -0.368008 -0.0541997 -0.469761
internal_weight=0 178 130 48 109 87 74 57 47
internal_count=252 178 130 48 109 87 74 57 47
is_linear=0
shrinkage=0.1


Tree=7
num_leaves=10
num_cat=0
split_feature=1 0 1 2 2 0 1 1 0
split_gain=1159.66 569.275 401.524 192.407 160.13 152.154 88.3407 63.3903 49.5619
threshold=165.75000000000003 33.500000000000007 184.50000000000003 70.375000000000014 71.125000000000014 54.500000000000007 211.12500000000003 148.12500000000003 41.500000000000007
decision_type=2 2 2 2 2 2 2 2 2
left_child=5 -2 4 -4 -3 7 -5 -1 -9
right_child=1 2 3 6 -6 -7 -8 8 -10
leaf_value=-0.52049349322915084 -0.23041115746863428 0.17213814031030683 0.63053706530481579 0.17661828540265562 -0.1735944858619145 -0.068110424822027046 0.44043980132449756 -0.42386021316051486 -0.21265964224934578
leaf_weight=20 31 37 24 30 21 22 22 20 25
leaf_count=20 31 37 24 30 21 22 22 20 25
internal_value=0 0.15577 0.24511 0.39633 0.0469591 -0.295425 0.288235 -0.372363 -0.306527
internal_weight=0 165 134 76 58 87 52 65 45
internal_count=252 165 134 76 58 87 52 65 45
is_linear=0
shrinkage=0.1


Tree=8
num_leaves=10
num_cat=0
split_feature=1 1 0 2 0 1 1 2 0
split_gain=941.086 442.263 330.716 223.973 159.123 121.324 97.6841 120.11 68.9455
threshold=161.12500000000003 202.37500000000003 33.500000000000007 71.625000000000014 57.500000000000007 184.50000000000003 144.50000000000003 69.375000000000014 44.500000000000007
decision_type=2 2 2 2 2 2 2 2 2
left_child=6 2 -2 -3 5 8 -1 -8 -4
right_child=1 3 4 -5 -6 -7 7 -9 -10
leaf_value=-0.47635385082526649 -0.33455888497687525 0.62894163259438107 0.049608581350184977 0.19350304095833393 0.33909922953356397 0.20084600326915583 -0.099894697243167518 -0.40963742846534368 -0.17203002566099168
leaf_weight=22 21 21 32 27 22 30 31 21 25
leaf_count=22 21 21 32 27 22 30 31 21 25
internal_value=0 0.124601 0.0288196 0.384007 0.0988283 0.0380702 -0.299715 -0.224983 -0.0476013
internal_weight=0 178 130 48 109 87 74 52 57
internal_count=252 178 130 48 109 87 74 52 57
is_linear=0
shrinkage=0.1


Tree=9
num_leaves=10
num_cat=0
split_feature=1 0 1 0 2 1 2 1 0
split_gain=772.444 403.442 278.931 117.832 114.995 69.7679 58.0393 40.2065 38.5333
threshold=165.75000000000003 33.500000000000007 202.37500000000003 54.500000000000007 68.625000000000014 184.50000000000003 71.125000000000014 148.12500000000003 41.500000000000007
decision_type=2 2 2 2 2 2 2 2 2
left_child=3 -2 4 7 -3 6 -6 -1 -9
right_child=1 2 -4 -5 5 -7 -8 8 -10
leaf_value=-0.42678923204541208 -0.19797161380129477 0.30655435919761659 0.43165994412020636 -0.041069553115151147 0.085684936568140982 0.16079343564342707 -0.15234330339091165 -0.35984253101050856 -0.17361688685417176
leaf_weight=20 31 23 38 22 20 32 21 20 25
leaf_count=20 31 23 38 22 20 32 21 20 25
internal_value=0 0.127131 0.202341 -0.24111 0.111569 0.0501353 -0.036232 -0.308816 -0.256384
internal_weight=0 165 134 87 96 73 41 65 45
internal_count=252 165 134 87 96 73 41 65 45
is_linear=0
shrinkage=0.1


Tree=10
num_leaves=10
num_cat=0
split_feature=1 0 1 2 2 0 1 0 1
split_gain=628.007 396.718 228.901 254.788 226.566 173.569 54.1773 59.127 16.3837
threshold=191.25000000000003 59.000000000000007 165.75000000000003 72.125000000000014 72.875000000000014 43.500000000000007 146.37500000000003 46.500000000000007 176.50000000000003
decision_type=2 2 2 2 2 2 2 2 2
left_child=1 2 6 8 5 -2 -1 -8 -4
right_child=4 -3 3 -5 -6 -7 7 -9 -10
leaf_value=-0.42163229838690974 0.14102415781468156 0.2640906814336777 0.015128154479540313 -0.33821127741109758 0.011069206999880928 0.52395451973866802 -0.14247334102789563 -0.3555845193240954 0.1253675130861146
leaf_weight=22 20 25 26 21 28 29 30 23 28
leaf_count=22 20 25 26 21 28 29 30 23 28
internal_value=0 -0.104715 -0.166182 -0.0426509 0.237988 0.367656 -0.289714 -0.234956 0.0722893
internal_weight=0 175 150 75 77 49 75 53 54
internal_count=252 175 150 75 77 49 75 53 54
is_linear=0
shrinkage=0.1


Tree=11
num_leaves=9
num_cat=0
split_feature=1 1 2 0 1 2 0 2
split_gain=515.136 307.278 275.971 214.436 180.617 64.1986 40.5246 37.5226
threshold=161.12500000000003 217.75000000000003 71.875000000000014 46.500000000000007 182.37500000000003 67.625000000000014 41.500000000000007 69.375000000000014
decision_type=2 2 2 2 2 2 2 2
left_child=5 2 4 -4 7 -1 -7 -2
right_child=1 -3 3 -5 -6 6 -8 -9
leaf_value=-0.095190110688026131 0.11421670358756493 0.4250071464727323 -0.3010702615208698 0.11389790698885918 0.30590008642428962 -0.37842830061912536 -0.19450103575768679 -0.04169771991895907
leaf_weight=26 29 24 33 20 39 25 23 33
leaf_count=26 29 24 33 20 39 25 23 33
internal_value=0 0.0921864 0.0403182 -0.144478 0.137291 -0.221746 -0.290296 0.03123
internal_weight=0 178 154 53 101 74 48 62
internal_count=252 178 154 53 101 74 48 62
is_linear=0
shrinkage=0.1


Tree=12
num_leaves=10
num_cat=0
split_feature=1 0 1 0 2 1 2 1 1
split_gain=425.464 302.127 221.865 176.993 146.84 49.0729 97.5178 32.4724 28.9151
threshold=202.37500000000003 59.000000000000007 168.12500000000003 39.500000000000007 71.625000000000014 146.37500000000003 68.375000000000014 184.50000000000003 159.50000000000003
decision_type=2 2 2 2 2 2 2 2 2
left_child=1 2 5 -4 -2 -1 -7 -5 -8
right_child=4 -3 3 7 -6 6 8 -9 -10
leaf_value=-0.35700879638845273 0.46619394989240742 0.23592231273651124 -0.2173572740621037 0.028477795079753204 0.11361959377924602 -0.0075801075924010509 -0.19239166229963303 0.17430548803307688 -0.35852657109498981
leaf_weight=22 21 29 27 37 27 21 22 26 20
leaf_count=22 21 29 27 37 27 21 22 26 20
internal_value=0 -0.0630284 -0.112569 -0.00314473 0.267871 -0.22843 -0.183529 0.0886607 -0.271504
internal_weight=0 204 175 90 48 85 63 63 42
internal_count=252 204 175 90 48 85 63 63 42
is_linear=0
shrinkage=0.1


Tree=13
num_leaves=9
num_cat=0
split_feature=1 1 2 0 1 1 2 2
split_gain=350.465 220.422 215.574 157.699 120.84 55.6677 74.0373 24.9532
threshold=161.12500000000003 217.75000000000003 71.875000000000014 46.500000000000007 182.37500000000003 144.50000000000003 69.375000000000014 69.375000000000014
decision_type=2 2 2 2 2 2 2 2
left_child=5 2 4 -4 7 -1 -7 -2
right_child=1 -3 3 -5 -6 6 -8 -9
leaf_value=-0.31624588350003419 0.098736047847517605 0.35792293685177962 -0.26550772929225458 0.09035338222980499 0.25572807567241868 -0.028276634216308594 -0.27146144339016509 -0.028409936820918864
leaf_weight=22 29 24 33 20 39 31 21 33
leaf_count=22 29 24 33 20 39 31 21 33
internal_value=0 0.0760375 0.0321073 -0.131221 0.117814 -0.182901 -0.126486 0.0310616
internal_weight=0 178 154 53 101 74 52 62
internal_count=252 178 154 53 101 74 52 62
is_linear=0
shrinkage=0.1


Tree=14
num_leaves=9
num_cat=0
split_feature=1 0 1 0 0 0 1 0
split_gain=286.267 229.369 153.562 133.09 132.543 34.739 44.8168 24.7852
threshold=202.37500000000003 59.000000000000007 168.12500000000003 41.500000000000007 39.500000000000007 46.500000000000007 153.62500000000003 43.500000000000007
decision_type=2 2 2 2 2 2 2 2
left_child=1 2 5 -2 -4 6 -1 -6
right_child=3 -3 4 -5 7 -7 -8 -9
leaf_value=-0.23391925240004505 0.046121646415280264 0.20877878902287317 -0.18920219242572786 0.37944055914878849 0.15294595053792001 -0.27563110613564573 -0.051717086025962124 0.024741032503937423
leaf_weight=27 23 29 27 25 25 31 27 38
leaf_count=27 23 29 27 25 25 31 27 38
internal_value=0 -0.0517001 -0.0948651 0.219725 -0.00382946 -0.191256 -0.142818 0.075616
internal_weight=0 204 175 48 90 85 54 63
internal_count=252 204 175 48 90 85 54 63
is_linear=0
shrinkage=0.1


Tree=15
num_leaves=9
num_cat=0
split_feature=1 0 1 2 0 1 1 2
split_gain=240.096 196.372 159.115 175.655 68.5809 39.8061 28.3689 71.8047
threshold=217.75000000000003 59.000000000000007 168.12500000000003 71.875000000000014 42.500000000000007 182.37500000000003 148.12500000000003 70.375000000000014
decision_type=2 2 2 2 2 2 2 2
left_child=1 2 6 5 -5 -4 -1 -8
right_child=-2 -3 3 4 -6 -7 7 -9
leaf_value=-0.26162910670042039 0.30085252728701262 0.19801278130616995 0.04104168367656795 -0.26051098927855493 -0.018864156305789949 0.19884897881457886 -0.051601293349736614 -0.27861337004737424
leaf_weight=25 24 32 33 23 24 31 38 22
leaf_count=25 24 32 33 23 24 31 38 22
internal_value=0 -0.0316687 -0.0691677 0.00967749 -0.137117 0.11748 -0.17213 -0.134839
internal_weight=0 228 196 111 47 64 85 60
internal_count=252 228 196 111 47 64 85 60
is_linear=0
shrinkage=0.1


Tree=16
num_leaves=10
num_cat=0
split_feature=1 0 1 2 0 2 2 0 0
split_gain=194.991 162.461 122.614 146.727 44.906 38.9868 32.9221 28.1698 36.1383
threshold=216.12500000000003 59.000000000000007 168.12500000000003 71.875000000000014 42.500000000000007 70.875000000000014 69.375000000000014 46.500000000000007 39.500000000000007
decision_type=2 2 2 2 2 2 2 2 2
left_child=1 2 7 5 -5 6 -4 8 -1
right_child=-2 -3 3 4 -6 -7 -8 -9 -10
leaf_value=-0.18446891613304617 0.25393127981159419 0.17821150692179799 0.14005836408053127 -0.23441467976028268 -0.034574355638545488 0.21949640208855273 -0.034989516707983885 -0.23089712435199369 -0.019836899358779192
leaf_weight=30 27 32 21 22 23 20 22 31 24
leaf_count=30 27 32 21 22 23 20 22 31 24
internal_value=0 -0.0304718 -0.0650721 0.00563936 -0.132274 0.104149 0.050499 -0.154917 -0.111299
internal_weight=0 225 193 108 45 63 43 85 54
internal_count=252 225 193 108 45 63 43 85 54
is_linear=0
shrinkage=0.1


Tree=17
num_leaves=10
num_cat=0
split_feature=0 1 2 1 0 0 1 2 1
split_gain=171.507 235.183 117.082 91.3992 75.6745 61.6212 53.467 27.5553 19.6967
threshold=39.500000000000007 184.50000000000003 72.125000000000014 177.12500000000003 59.000000000000007 44.500000000000007 211.12500000000003 68.625000000000014 196.87500000000003
decision_type=2 2 2 2 2 2 2 2 2
left_child=2 4 3 -1 5 -2 8 -7 -3
right_child=1 6 -4 -5 -6 7 -8 -9 -10
leaf_value=-0.15400007792881557 0.025414960944142778 0.21226685323885511 -0.29825902237341956 0.1219818186547075 0.13823678635415579 -0.054647303169423893 0.33765941723471599 -0.20003012714441867 0.076869574460116302
leaf_weight=28 38 21 26 21 21 22 21 32 22
leaf_count=28 38 21 26 21 21 22 21 32 22
internal_value=0 0.0537012 -0.126735 -0.0357221 -0.0330484 -0.072146 0.206868 -0.1408 0.142994
internal_weight=0 177 75 49 113 92 64 54 43
internal_count=252 177 75 49 113 92 64 54 43
is_linear=0
shrinkage=0.1


Tree=18
num_leaves=10
num_cat=0
split_feature=0 1 2 0 0 2 2 1 1
split_gain=142.296 166.829 77.3103 58.0561 71.4652 48.5548 66.9451 23.2429 18.4395
threshold=40.500000000000007 184.50000000000003 70.375000000000014 59.000000000000007 44.500000000000007 71.375000000000014 69.125000000000014 166.87500000000003 202.37500000000003
decision_type=2 2 2 2 2 2 2 2 2
left_child=5 3 -3 4 -2 6 -1 -6 -4
right_child=1 2 8 -5 7 -7 -8 -9 -10
leaf_value=-0.15829581485058253 0.080671968869864941 0.34825349792838101 0.042991542958077937 0.12441310329096658 -0.1832308199226616 -0.18970504960355661 0.060937206745147715 -0.050553426276082586 0.17715731400996448
leaf_weight=26 24 20 21 21 31 36 30 23 20
leaf_count=26 24 20 21 21 31 36 30 23 20
internal_value=0 0.056981 0.187066 -0.0231725 -0.0629071 -0.0990974 -0.0408496 -0.12672 0.108438
internal_weight=0 160 61 99 78 92 56 54 41
internal_count=252 160 61 99 78 92 56 54 41
is_linear=0
shrinkage=0.1


Tree=19
num_leaves=10
num_cat=0
split_feature=1 1 2 0 1 0 1 2 2
split_gain=125.012 93.4275 197.846 109.263 35.6687 71.4144 32.8834 9.09772 1.94912
threshold=217.75000000000003 144.50000000000003 67.625000000000014 39.500000000000007 184.50000000000003 43.500000000000007 175.75000000000003 69.875000000000014 72.125000000000014
decision_type=2 2 2 2 2 2 2 2 2
left_child=1 -1 -3 6 5 -5 -4 -7 -6
right_child=-2 2 3 4 8 7 -8 -9 -10
leaf_value=-0.21873241046612915 0.21708855560670295 0.23091346658766271 -0.26424223966896537 0.092669044306565973 0.061680406665739922 -0.15720722138881685 -0.10174192573988078 -0.069537352988946019 0.10394970545545222
leaf_weight=22 24 31 20 29 24 20 33 29 20
leaf_count=22 24 31 20 29 24 20 33 29 20
internal_value=0 -0.0228514 -0.0019321 -0.043179 0.00890163 -0.0317093 -0.163063 -0.105321 0.0808937
internal_weight=0 228 206 175 122 78 53 49 44
internal_count=252 228 206 175 122 78 53 49 44
is_linear=0
shrinkage=0.1


Tree=20
num_leaves=10
num_cat=0
split_feature=1 0 1 2 2 2 0 1 1
split_gain=101.554 85.0142 92.7605 132.918 74.1921 45.7399 20.0885 50.4153 14.8155
threshold=202.37500000000003 30.500000000000004 155.37500000000003 67.875000000000014 71.625000000000014 68.125000000000014 43.500000000000007 184.50000000000003 178.12500000000003
decision_type=2 2 2 2 2 2 2 2 2
left_child=1 -1 5 -4 -2 -3 8 -8 -5
right_child=4 2 3 6 -6 -7 7 -9 -10
leaf_value=-0.18626251588265103 0.27184222890951099 -0.22256500848258534 0.26252723227847707 0.085624528239513276 0.021226682872683915 -0.017801219336688517 -0.1174299057170346 0.076562542095780381 -0.024664977192878725
leaf_weight=30 21 24 22 29 27 20 37 21 21
leaf_count=30 21 24 22 29 27 20 37 21 21
internal_value=0 -0.0307932 -0.00398811 0.0384896 0.130871 -0.129491 -0.00714765 -0.0471913 0.0393029
internal_weight=0 204 174 130 48 44 108 58 50
internal_count=252 204 174 130 48 44 108 58 50
is_linear=0
shrinkage=0.1


Tree=21
num_leaves=11
num_cat=0
split_feature=1 0 1 2 0 0 1 2 2 0
split_gain=89.6698 73.6585 55.0476 117.859 61.0739 42.0981 54.1581 30.9467 29.2323 2.57141
threshold=217.75000000000003 62.500000000000007 144.50000000000003 67.625000000000014 39.500000000000007 43.500000000000007 184.50000000000003 71.125000000000014 70.625000000000014 41.500000000000007
decision_type=2 2 2 2 2 2 2 2 2 2
left_child=1 2 -1 -4 7 9 8 -5 -7 -6
right_child=-2 -3 3 4 5 6 -8 -9 -10 -11
leaf_value=-0.19557212203741076 0.18385893652836482 0.15457316352562472 0.18103050732612611 -0.056268355871240294 0.04495053164660931 -0.21615843040868643 0.054862689936103728 -0.20977982436788492 -0.047231428679965798 0.09505232441283408
leaf_weight=20 24 22 25 24 20 20 26 29 21 21
leaf_count=20 24 22 25 24 20 20 26 29 21 21
internal_value=0 -0.0193536 -0.0379283 -0.0209773 -0.052345 -0.00919897 -0.0580388 -0.140265 -0.129635 0.0706124
internal_weight=0 228 206 186 161 108 67 53 41 41
internal_count=252 228 206 186 161 108 67 53 41 41
is_linear=0
shrinkage=0.1


Tree=22
num_leaves=10
num_cat=0
split_feature=0 2 1 1 2 0 2 0 1
split_gain=73.6682 64.581 51.7377 38.9645 31.8735 88.5005 40.0677 10.6307 5.13668
threshold=64.500000000000014 67.375000000000014 168.12500000000003 157.87500000000003 71.875000000000014 39.500000000000007 70.875000000000014 41.500000000000007 183.62500000000003
decision_type=2 2 2 2 2 2 2 2 2
left_child=1 -1 3 7 6 -6 8 -3 -4
right_child=-2 2 4 -5 5 -7 -8 -9 -10
leaf_value=0.12606694573270424 0.1793230516569955 -0.094920017321904512 0.025808466672897341 -0.19690268880554609 -0.20727796684140745 0.040049572136157598 0.15495586843918199 0.0057006258340108959 -0.039674472808837895
leaf_weight=28 21 21 25 28 23 39 23 21 23
leaf_count=28 21 21 25 28 23 39 23 21 23
internal_value=0 -0.0163021 -0.0359392 -0.105527 0.000685894 -0.051701 0.0464322 -0.0446097 -0.00556878
internal_weight=0 231 203 70 133 62 71 42 48
internal_count=252 231 203 70 133 62 71 42 48
is_linear=0
shrinkage=0.1


Tree=23
num_leaves=10
num_cat=0
split_feature=1 1 2 0 0 1 1 2 0
split_gain=71.9957 52.5932 104.991 54.7102 22.8683 36.712 22.5659 7.77519 2.51227
threshold=217.75000000000003 144.50000000000003 67.625000000000014 39.500000000000007 43.500000000000007 184.50000000000003 175.75000000000003 69.875000000000014 41.500000000000007
decision_type=2 2 2 2 2 2 2 2 2
left_child=1 -1 -3 6 8 7 -4 -6 -5
right_child=-2 2 3 4 5 -7 -8 -9 -10
leaf_value=-0.16430859565734865 0.16474601421505214 0.16797506877731894 -0.20034159988164904 0.040648347996175289 -0.12801470398902892 0.057664649048820141 -0.065726845643737097 -0.046967198879554362 0.090170597160855931
leaf_weight=22 24 31 20 20 20 32 33 29 21
leaf_count=22 24 31 20 20 20 32 33 29 21
internal_value=0 -0.0173417 -0.00164619 -0.0316934 0.00515963 -0.0256429 -0.116525 -0.0800478 0.0660134
internal_weight=0 228 206 175 122 81 53 49 41
internal_count=252 228 206 175 122 81 53 49 41
is_linear=0
shrinkage=0.1


Tree=24
num_leaves=10
num_cat=0
split_feature=1 2 1 2 0 0 1 2 1
split_gain=59.0095 142.967 33.9214 41.8198 52.0996 19.5696 82.3283 14.8703 12.188
threshold=162.87500000000003 68.125000000000014 219.07500000000002 71.875000000000014 46.500000000000007 34.500000000000007 149.00000000000003 70.625000000000014 179.87500000000003
decision_type=2 2 2 2 2 2 2 2 2
left_child=5 -2 3 7 -5 -1 -7 8 -3
right_child=1 2 -4 4 -6 6 -8 -9 -10
leaf_value=0.015531738884747029 0.28454752422869206 -0.054051832675933845 0.11795368861584438 -0.16457183744871257 0.039970532581210139 -0.25313341637903991 -0.011199979016031975 0.086168038093351898 0.045715525125463806
leaf_weight=20 20 25 21 33 20 22 39 28 24
leaf_count=20 20 25 21 33 20 22 39 28 24
internal_value=0 0.0333047 2.7479e-05 -0.0190221 -0.087386 -0.0703099 -0.0984547 0.0280335 -0.00518619
internal_weight=0 171 151 130 53 81 61 77 49
internal_count=252 171 151 130 53 81 61 77 49
is_linear=0
shrinkage=0.1


Tree=25
num_leaves=10
num_cat=0
split_feature=2 0 1 2 2 1 0 0 1
split_gain=56.9647 40.4692 25.4816 18.8487 38.3514 26.3125 18.0185 13.4826 7.11821
threshold=66.875000000000014 30.500000000000004 214.12500000000003 71.875000000000014 69.625000000000014 155.37500000000003 47.500000000000007 52.500000000000007 190.00000000000003
decision_type=2 2 2 2 2 2 2 2 2
left_child=-1 -2 3 4 5 -3 -6 -7 -5
right_child=1 2 -4 8 6 7 -8 -9 -10
leaf_value=0.15372873490506955 -0.1120795811009076 -0.11984420936697951 0.095490754109162551 -0.1125401995703578 0.024136336147785188 0.055773021280765535 0.14169898813759738 -0.051565202528780156 -0.029181177843184698
leaf_weight=22 36 26 26 20 32 25 22 22 21
leaf_count=22 36 26 26 20 32 25 22 22 21
internal_value=0 -0.0147045 0.00336512 -0.0108924 0.00813923 -0.0391241 0.0720322 0.0055296 -0.0698441
internal_weight=0 230 194 168 127 73 54 47 41
internal_count=252 230 194 168 127 73 54 47 41
is_linear=0
shrinkage=0.1


Tree=26
num_leaves=9
num_cat=0
split_feature=0 2 0 0 2 1 0 2
split_gain=51.5991 38.2534 31.9227 45.1288 25.6027 15.6042 29.5753 21.3425
threshold=64.500000000000014 67.375000000000014 48.500000000000007 30.500000000000004 69.625000000000014 168.12500000000003 39.500000000000007 71.125000000000014
decision_type=2 2 2 2 2 2 2 2
left_child=1 -1 3 -3 -4 -5 -7 -8
right_child=-2 2 4 5 -6 6 7 -9
leaf_value=0.095928106922656298 0.15007803213028681 -0.10380306052310127 -0.17736902087926865 -0.02710887282658872 -0.038099608954155088 -0.045655677535317164 0.018908595520517102 0.14604653368193296
leaf_weight=28 21 35 22 37 33 22 23 31
leaf_count=28 21 35 22 37 33 22 23 31
internal_value=0 -0.0136435 -0.0287568 -0.00458257 -0.0938074 0.0261494 0.0520778 0.0918952
internal_weight=0 231 203 148 55 113 76 54
internal_count=252 231 203 148 55 113 76 54
is_linear=0
shrinkage=0.1


Tree=27
num_leaves=10
num_cat=0
split_feature=1 2 0 1 2 0 0 1 1
split_gain=45.2782 48.378 34.0215 24.6951 55.6609 30.0232 22.7348 15.0144 35.277
threshold=202.37500000000003 71.625000000000014 62.500000000000007 144.50000000000003 67.625000000000014 30.500000000000004 48.500000000000007 168.12500000000003 178.12500000000003
decision_type=2 2 2 2 2 2 2 2 2
left_child=2 -2 3 -1 -5 -6 7 -7 -9
right_child=1 -3 -4 4 5 6 -8 8 -10
leaf_value=-0.13893180161714555 0.20122026503086091 -0.0011529074774848092 0.10330575346946716 0.12301275355984337 -0.14415884983539581 -0.054337658291613612 -0.089333728576699897 0.13799007536311234 -0.028811210533604026
leaf_weight=20 21 27 20 23 25 27 36 21 32
leaf_count=20 21 27 20 23 25 27 36 21 32
internal_value=0 0.0873854 -0.0205613 -0.0340251 -0.0212316 -0.0447608 -0.0233388 0.00635895 0.0372799
internal_weight=0 48 204 184 164 141 116 80 53
internal_count=252 48 204 184 164 141 116 80 53
is_linear=0
shrinkage=0.1


Tree=28
num_leaves=9
num_cat=0
split_feature=1 2 1 0 2 1 1 1
split_gain=37.9865 35.3593 51.4314 36.5147 25.3866 81.2422 17.9765 6.45392
threshold=216.12500000000003 71.875000000000014 176.50000000000003 57.500000000000007 68.125000000000014 157.87500000000003 187.00000000000003 192.37500000000003
decision_type=2 2 2 2 2 2 2 2
left_child=1 2 3 4 -1 -6 -3 -4
right_child=-2 6 7 -5 5 -7 -8 -9
leaf_value=-0.12593386490993641 0.1120789016838427 -0.14247976426894848 0.11401636916048385 0.09152710542082787 0.12734350050273149 -0.1190522236051038 -0.030534596886718647 0.046286423131823545
leaf_weight=34 27 26 34 20 23 32 32 24
leaf_count=34 27 26 34 20 23 32 32 24
internal_value=0 -0.0134495 0.00991288 -0.0305686 -0.0580059 -0.016014 -0.0807169 0.0859902
internal_weight=0 225 167 109 89 55 58 58
internal_count=252 225 167 109 89 55 58 58
is_linear=0
shrinkage=0.1


Tree=29
num_leaves=10
num_cat=0
split_feature=2 0 1 1 0 1 2 0 1
split_gain=38.2166 20.0805 32.0026 35.253 26.7701 20.6932 26.1662 39.5823 13.5391
threshold=66.875000000000014 59.000000000000007 168.12500000000003 150.62500000000003 41.500000000000007 178.87500000000003 71.625000000000014 39.500000000000007 195.37500000000003
decision_type=2 2 2 2 2 2 2 2 2
left_child=-1 2 3 -2 -5 -4 8 -8 -7
right_child=1 -3 5 4 -6 6 7 -9 -10
leaf_value=0.12591522254727103 0.025309604131009269 0.064247635056575145 0.073368373578962157 -0.21376754313707355 -0.063380969508454718 -0.014545145332813265 -0.17040200801122757 0.0052208132138758002 0.10181238263845445
leaf_weight=22 23 30 34 20 29 20 21 33 20
leaf_count=22 23 30 34 20 29 20 21 33 20
internal_value=0 -0.0120441 -0.0234878 -0.0768233 -0.124763 0.00651339 -0.0176682 -0.063077 0.0436336
internal_weight=0 230 200 72 49 128 94 54 40
internal_count=252 230 200 72 49 128 94 54 40
is_linear=0
shrinkage=0.1


Tree=30
num_leaves=10
num_cat=0
split_feature=1 2 0 0 1 2 0 1 2
split_gain=33.7677 80.3498 27.4855 24.2861 29.6084 18.1963 14.1008 7.41969 1.19093
threshold=144.50000000000003 67.625000000000014 39.500000000000007 43.500000000000007 184.50000000000003 72.125000000000014 41.500000000000007 171.00000000000003 71.875000000000014
decision_type=2 2 2 2 2 2 2 2 2
left_child=-1 -2 5 6 7 -3 -4 -5 -6
right_child=1 2 3 4 8 -7 -8 -9 -10
leaf_value=-0.11835944164883008 0.15834457042510622 -0.023090143442764326 0.01645896230702815 -0.03626147098839283 0.062672705128788961 -0.13352760675549508 0.12719097012734934 -0.11489401254802943 0.028576197630415363
leaf_weight=22 32 37 23 28 20 25 23 21 21
leaf_count=22 32 37 23 28 20 25 23 21 21
internal_value=0 0.0113213 -0.01244 0.0127162 -0.0174949 -0.0676214 0.071825 -0.0699611 0.0452086
internal_weight=0 230 198 136 90 62 46 49 41
internal_count=252 230 198 136 90 62 46 49 41
is_linear=0
shrinkage=0.1


Tree=31
num_leaves=10
num_cat=0
split_feature=1 0 1 2 0 0 2 2 1
split_gain=32.1567 27.8528 20.1485 41.2407 24.0868 17.8075 19.447 40.3202 6.44096
threshold=205.62500000000003 41.500000000000007 144.50000000000003 67.625000000000014 39.500000000000007 43.500000000000007 69.625000000000014 71.875000000000014 175.75000000000003
decision_type=2 2 2 2 2 2 2 2 2
left_child=2 -2 -1 -4 8 -6 -7 -8 -5
right_child=1 -3 3 4 5 6 7 -9 -10
leaf_value=-0.10652349862185391 0.0022317416965961455 0.1652861998230219 0.10002371114228042 -0.13028320649638772 0.053189699810284832 -0.10909343036738309 0.080835019077720324 -0.098694691807031637 -0.054146072298288356
leaf_weight=22 22 20 31 20 39 22 29 22 25
leaf_count=22 22 20 31 20 39 22 29 22 25
internal_value=0 0.0798767 -0.0159753 -0.00537929 -0.0261913 -0.00136361 -0.0305085 0.00339083 -0.0879848
internal_weight=0 42 210 188 157 112 73 51 45
internal_count=252 42 210 188 157 112 73 51 45
is_linear=0
shrinkage=0.1


Tree=32
num_leaves=10
num_cat=0
split_feature=1 2 0 1 2 1 2 2 1
split_gain=27.154 87.4801 32.1458 52.2805 13.7024 21.5526 11.5718 26.7939 17.6648
threshold=162.87500000000003 68.125000000000014 34.500000000000007 149.00000000000003 74.125000000000014 202.37500000000003 70.875000000000014 71.875000000000014 178.87500000000003
decision_type=2 2 2 2 2 2 2 2 2
left_child=2 -2 -1 -4 5 6 8 -8 -3
right_child=1 4 3 -5 -6 -7 7 -9 -10
leaf_value=0.062324511166661982 0.21912282820791007 0.0064269651969273882 -0.20702796774831686 -0.01423497524781105 -0.080533953309059159 0.079676048480905592 0.10478288263659037 -0.039710522555943692 -0.11916011543500991
leaf_weight=20 20 24 22 39 20 32 21 33 21
leaf_count=20 20 24 22 39 20 32 21 33 21
internal_value=0 0.0225923 -0.0476949 -0.0837669 -0.0034382 0.00833215 -0.0147285 0.0164814 -0.0521803
internal_weight=0 171 81 61 151 131 99 54 45
internal_count=252 171 81 61 151 131 99 54 45
is_linear=0
shrinkage=0.1


Tree=33
num_leaves=9
num_cat=0
split_feature=2 1 1 1 0 1 0 1
split_gain=25.0797 13.6268 15.0969 31.7045 15.7508 17.2 11.8358 33.6453
threshold=66.875000000000014 219.07500000000002 150.62500000000003 161.12500000000003 47.500000000000007 178.87500000000003 42.500000000000007 184.50000000000003
decision_type=2 2 2 2 2 2 2 2
left_child=-1 2 -2 -4 6 -6 7 -5
right_child=1 -3 3 4 5 -7 -8 -9
leaf_value=0.10200320780277253 0.053830783828519857 0.067031751076380416 -0.11319467848965099 0.059001817072139064 0.093983353989628649 -0.017141316706935566 -0.088465452249403359 -0.085043414129364892
leaf_weight=22 26 21 35 34 26 30 27 31
leaf_count=22 26 21 35 34 26 30 27 31
internal_value=0 -0.00975683 -0.0174724 -0.0276029 -0.00736165 0.0344523 -0.0328136 -0.00969668
internal_weight=0 230 209 183 148 56 92 65
internal_count=252 230 209 183 148 56 92 65
is_linear=0
shrinkage=0.1


Tree=34
num_leaves=9
num_cat=0
split_feature=1 0 0 1 0 2 0 2
split_gain=22.9625 21.0476 15.8843 14.1245 27.6199 24.0823 15.4354 15.4908
threshold=205.62500000000003 41.500000000000007 62.500000000000007 170.00000000000003 46.500000000000007 68.125000000000014 46.500000000000007 70.875000000000014
decision_type=2 2 2 2 2 2 2 2
left_child=2 -2 3 4 5 -1 7 -5
right_child=1 -3 -4 6 -6 -7 -8 -9
leaf_value=-0.094071887470781809 2.1618198264728895e-06 0.14174455914646386 0.071269163787364961 -0.086399744212627416 -0.11572623817544235 0.042126194528631263 0.056445256413684954 0.017294349565225488
leaf_weight=20 22 20 20 25 38 37 36 34
leaf_count=20 22 20 20 25 38 37 36 34
internal_value=0 0.0674985 -0.0134997 -0.0224227 -0.0496881 -0.00566261 0.00484256 -0.0266438
internal_weight=0 42 210 190 95 57 95 59
internal_count=252 42 210 190 95 57 95 59
is_linear=0
shrinkage=0.1


Tree=35
num_leaves=9
num_cat=0
split_feature=2 1 1 2 1 2 2 0
split_gain=22.4999 10.7515 27.8423 13.7258 12.5754 10.8479 13.1503 10.766
threshold=66.875000000000014 150.62500000000003 161.12500000000003 74.125000000000014 202.37500000000003 70.875000000000014 71.875000000000014 51.500000000000007
decision_type=2 2 2 2 2 2 2 2
left_child=-1 -2 -3 4 5 7 -7 -4
right_child=1 2 3 -5 -6 6 -8 -9
leaf_value=0.096614629707553176 0.051320528926757675 -0.098139714018574797 -0.06924844653242164 -0.077934072315692909 0.064761135761033414 0.089221574295134776 -0.01142513204146834 0.016173756122589113
leaf_weight=22 26 35 36 20 33 21 34 25
leaf_count=22 26 35 36 20 33 21 34 25
internal_value=0 -0.0092414 -0.0169601 -0.000147725 0.0102934 -0.00520174 0.0270036 -0.0342393
internal_weight=0 230 204 169 149 116 55 61
internal_count=252 230 204 169 149 116 55 61
is_linear=0
shrinkage=0.1


Tree=36
num_leaves=10
num_cat=0
split_feature=1 2 0 0 0 2 1 1 1
split_gain=20.0156 45.6955 16.585 21.278 32.3701 22.5896 50.3001 14.6159 8.64153
threshold=144.50000000000003 67.625000000000014 39.500000000000007 48.500000000000007 61.500000000000007 70.125000000000014 184.50000000000003 195.37500000000003 178.87500000000003
decision_type=2 2 2 2 2 2 2 2 2
left_child=-1 -2 7 5 8 -4 -7 -3 -5
right_child=1 2 3 4 -6 6 -8 -9 -10
leaf_value=-0.091124796190045099 0.11959041128866375 -0.089353616058062288 0.11969283521175385 -0.03994406206267221 0.065615140680562373 -0.10010388441707777 0.10903538643665936 0.011157229866670526 -0.13179058264940977
leaf_weight=22 32 39 27 21 22 23 23 23 20
leaf_count=22 32 39 27 21 22 23 23 23 20
internal_value=0 0.00871629 -0.00920277 0.0103384 -0.0322397 0.047084 0.00446575 -0.0520673 -0.0847472
internal_weight=0 230 198 136 63 73 46 62 41
internal_count=252 230 198 136 63 73 46 62 41
is_linear=0
shrinkage=0.1


Tree=37
num_leaves=10
num_cat=0
split_feature=1 2 0 2 0 2 2 0 0
split_gain=16.5022 57.5391 16.6784 16.8731 15.687 25.9223 34.4096 11.7388 10.3989
threshold=148.12500000000003 67.375000000000014 39.500000000000007 72.125000000000014 43.500000000000007 72.625000000000014 69.625000000000014 41.500000000000007 52.500000000000007
decision_type=2 2 2 2 2 2 2 2 2
left_child=-1 -2 3 -3 7 6 -6 -4 -8
right_child=1 2 4 -5 5 -7 8 -9 -10
leaf_value=-0.072379573328154423 0.16262286080851815 -0.0085845832195546902 0.0072024892205777378 -0.1168316765377919 -0.068361230399459613 -0.11353458605706693 0.026904465354979042 0.10717738357683022 0.12364662483334542
leaf_weight=28 22 36 23 24 30 20 25 24 20
leaf_count=28 22 36 23 24 30 20 25 24 20
internal_value=0 0.00904744 -0.00767859 -0.0518834 0.0109995 -0.0123788 0.0145961 0.0582535 0.069901
internal_weight=0 224 202 60 142 95 75 47 45
internal_count=252 224 202 60 142 95 75 47 45
is_linear=0
shrinkage=0.1


Tree=38
num_leaves=9
num_cat=0
split_feature=1 0 1 2 0 0 1 1
split_gain=16.6727 15.8165 9.83776 14.042 13.5688 7.87172 14.0626 22.2207
threshold=205.62500000000003 41.500000000000007 144.50000000000003 67.625000000000014 30.500000000000004 54.500000000000007 183.62500000000003 168.12500000000003
decision_type=2 2 2 2 2 2 2 2
left_child=2 -2 -1 -4 -5 6 7 -6
right_child=1 -3 3 4 5 -7 -8 -9
leaf_value=-0.074774358895691964 -0.00099475586956197576 0.12187750279903412 0.057405042317846135 -0.082232060799231899 -0.018271143606730871 -0.04812411944071452 -0.042166984963285574 0.09702308578416706
leaf_weight=22 22 20 31 26 35 30 34 32
leaf_count=22 22 20 31 26 35 30 34 32
internal_value=0 0.0575158 -0.0115032 -0.00409909 -0.0162432 -0.0031462 0.0102136 0.0367948
internal_weight=0 42 210 188 157 131 101 67
internal_count=252 42 210 188 157 131 101 67
is_linear=0
shrinkage=0.1


Tree=39
num_leaves=10
num_cat=0
split_feature=1 0 1 2 0 0 2 1 0
split_gain=14.2811 27.3072 30.3686 22.3768 15.0387 15.8552 14.8441 13.1741 9.40658
threshold=187.00000000000003 32.500000000000007 149.00000000000003 70.375000000000014 39.500000000000007 48.500000000000007 71.375000000000014 168.37500000000003 46.500000000000007
decision_type=2 2 2 2 2 2 2 2 2
left_child=1 -1 -3 -2 -5 -6 7 8 -4
right_child=3 2 6 4 5 -7 -8 -9 -10
leaf_value=0.065437775361351674 0.11254771804064512 -0.13927869692755243 0.092304508239030844 -0.068362864532640996 0.093862556801600897 -0.029159707799553871 -0.07913176119327546 -0.042152413725852968 0.0025115042924880983
leaf_weight=32 25 24 20 21 22 20 27 33 28
leaf_count=32 25 24 20 21 22 20 27 33 28
internal_value=0 -0.0174381 -0.0375293 0.0324984 0.000732729 0.0352805 -0.0149183 0.00648621 0.0399253
internal_weight=0 164 132 88 63 42 108 81 48
internal_count=252 164 132 88 63 42 108 81 48
is_linear=0
shrinkage=0.1


Tree=40
num_leaves=9
num_cat=0
split_feature=2 1 1 2 1 0 1 1
split_gain=12.9975 16.101 22.5262 7.84581 8.3939 17.7884 9.7728 10.3211
threshold=66.875000000000014 150.62500000000003 161.12500000000003 74.125000000000014 179.87500000000003 47.500000000000007 187.95000000000002 202.37500000000003
decision_type=2 2 2 2 2 2 2 2
left_child=-1 -2 -3 4 5 -4 -6 -8
right_child=1 2 3 -5 6 -7 7 -9
leaf_value=0.073431483046575027 0.067088580148769186 -0.089488906541040969 -0.067301471924616232 -0.060157581120729442 0.086336473765827371 0.03897288622600692 -0.03371423859029047 0.046641063103170108
leaf_weight=22 26 35 36 20 21 28 31 33
leaf_count=22 26 35 36 20 21 28 31 33
internal_value=0 -0.00702388 -0.0164696 -0.00134724 0.00654676 -0.0208064 0.0271421 0.00771896
internal_weight=0 230 204 169 149 64 85 64
internal_count=252 230 204 169 149 64 85 64
is_linear=0
shrinkage=0.1


Tree=41
num_leaves=10
num_cat=0
split_feature=0 0 1 1 2 2 1 2 0
split_gain=11.917 17.577 26.6922 37.5757 48.8841 28.8639 25.3149 9.543 20.0925
threshold=64.500000000000014 56.500000000000007 168.12500000000003 157.87500000000003 68.125000000000014 69.375000000000014 178.12500000000003 73.875000000000014 37.500000000000007
decision_type=2 2 2 2 2 2 2 2 2
left_child=1 2 3 4 -1 -4 -7 8 -8
right_child=-2 -3 5 -5 -6 6 7 -9 -10
leaf_value=-0.09314754561831555 0.072123814409687403 -0.091578126563267276 0.13525889844908803 -0.1289080920118478 0.10299927492936452 0.099491934478282931 0.073991831128175062 -0.073650527271357444 -0.04480470410415105
leaf_weight=24 21 22 22 31 27 24 24 22 35
leaf_count=24 21 22 22 31 27 24 24 22 35
internal_value=0 -0.00655671 0.00239291 -0.0420818 0.0106949 0.0311089 0.00928699 -0.0174404 0.00351931
internal_weight=0 231 209 82 51 127 105 81 59
internal_count=252 231 209 82 51 127 105 81 59
is_linear=0
shrinkage=0.1


Tree=42
num_leaves=11
num_cat=0
split_feature=2 1 1 0 0 0 1 0 1 1
split_gain=12.0337 12.7682 17.1597 6.03541 15.9137 9.91229 10.6897 15.2127 12.8516 0.0764845
threshold=66.875000000000014 150.62500000000003 161.12500000000003 61.500000000000007 52.500000000000007 47.500000000000007 193.75000000000003 42.500000000000007 178.87500000000003 211.12500000000003
decision_type=2 2 2 2 2 2 2 2 2 2
left_child=-1 -2 -3 4 5 6 7 8 -4 -8
right_child=1 2 3 -5 -6 -7 9 -9 -10 -11
leaf_value=0.070656409995122391 0.059239406804912367 -0.078900604822805961 0.046339980304241184 0.046877901696346029 -0.092193224728107454 0.068394112661480905 0.035284758341454329 -0.10627765590324999 -0.061207596212625504 0.026749983571824579
leaf_weight=22 26 35 25 22 20 20 21 20 20 21
leaf_count=22 26 35 25 22 20 20 21 20 20 21
internal_value=0 -0.00675844 -0.0151699 -0.00197127 -0.00928203 0.00377485 -0.00830351 -0.0337109 -0.00145894 0.0310174
internal_weight=0 230 204 169 147 127 107 65 45 42
internal_count=252 230 204 169 147 127 107 65 45 42
is_linear=0
shrinkage=0.1


Tree=43
num_leaves=10
num_cat=0
split_feature=1 2 0 1 1 1 0 1 0
split_gain=11.7718 38.3179 13.8438 13.1901 12.7617 15.1605 11.72 11.867 1.17628
threshold=148.12500000000003 67.375000000000014 39.500000000000007 195.37500000000003 164.75000000000003 171.62500000000003 48.500000000000007 191.25000000000003 55.500000000000007
decision_type=2 2 2 2 2 2 2 2 2
left_child=-1 -2 3 -3 -4 -6 7 -7 -8
right_child=1 2 4 -5 5 6 8 -9 -10
leaf_value=-0.061131544158394849 0.13296742374077439 -0.083248355813525826 0.066590661928057668 0.013186733307235916 -0.077363143245811061 0.096978375455364585 -0.043005673363804821 -0.0035411845082822056 -0.0087087450921535508
leaf_weight=28 22 37 32 23 23 24 20 23 20
leaf_count=28 22 37 32 23 23 24 20 23 20
internal_value=0 0.00764144 -0.00600792 -0.0462816 0.0110091 -0.00516006 0.0139281 0.047788 -0.0258572
internal_weight=0 224 202 60 142 110 87 47 40
internal_count=252 224 202 60 142 110 87 47 40
is_linear=0
shrinkage=0.1


Tree=44
num_leaves=11
num_cat=0
split_feature=0 1 2 0 2 0 2 2 0 1
split_gain=11.2124 59.3173 33.6464 19.4494 32.1931 27.862 34.1805 36.6601 9.52973 0.345579
threshold=34.500000000000007 149.00000000000003 71.125000000000014 41.500000000000007 67.875000000000014 43.500000000000007 69.625000000000014 72.625000000000014 52.500000000000007 177.12500000000003
decision_type=2 2 2 2 2 2 2 2 2 2
left_child=2 -2 -1 9 -5 -6 -7 8 -8 -3
right_child=1 3 -4 4 5 6 7 -9 -10 -11
leaf_value=0.12519490224123003 -0.16574582118879666 -0.042603288441896439 -0.034414306043514184 0.12431912640178647 0.10288874710148031 -0.13081525218757717 0.022296333104372026 -0.099260165393352515 0.11490710869431496 -0.060970412265686759
leaf_weight=25 22 20 28 27 22 22 25 20 20 21
leaf_count=25 22 20 28 27 22 22 25 20 20 21
internal_value=0 -0.0108858 0.0408731 0.00836235 0.0265631 0.00234829 -0.0230757 0.01339 0.0634567 -0.0520108
internal_weight=0 199 53 177 136 109 87 65 45 41
internal_count=252 199 53 177 136 109 87 65 45 41
is_linear=0
shrinkage=0.1


Tree=45
num_leaves=10
num_cat=0
split_feature=1 0 1 2 0 1 2 1 1
split_gain=10.9535 13.1497 42.214 33.3974 6.74781 27.2547 20.7139 15.5213 19.1549
threshold=217.75000000000003 34.500000000000007 149.00000000000003 71.125000000000014 47.500000000000007 166.87500000000003 70.125000000000014 162.87500000000003 178.87500000000003
decision_type=2 2 2 2 2 2 2 2 2
left_child=1 3 -3 -1 5 -4 -7 -6 -9
right_child=-2 2 4 -5 7 6 -8 8 -10
leaf_value=0.12361341106394928 0.064259482795993486 -0.14917124374346299 0.066140663189192622 -0.039973673539666028 -0.049835420432298078 0.017997781699523329 -0.11097461657993722 0.12044194313612851 0.00068988503121277878
leaf_weight=24 24 22 24 26 23 20 33 22 34
leaf_count=24 24 22 24 26 23 20 33 22 34
internal_value=0 -0.00676416 -0.0194923 0.0385481 -0.00120427 -0.0222705 -0.0623058 0.0193287 0.0477353
internal_weight=0 228 178 50 156 77 53 79 56
internal_count=252 228 178 50 156 77 53 79 56
is_linear=0
shrinkage=0.1


Tree=46
num_leaves=10
num_cat=0
split_feature=1 0 0 2 1 1 0 2 1
split_gain=10.4437 20.6751 19.3552 15.9496 14.7502 24.9292 21.9329 9.58611 0.00646947
threshold=187.00000000000003 32.500000000000007 44.500000000000007 73.125000000000014 155.37500000000003 166.87500000000003 47.500000000000007 67.875000000000014 202.37500000000003
decision_type=2 2 2 2 2 2 2 2 2
left_child=1 -1 3 -2 7 -6 -7 -3 -4
right_child=2 4 8 -5 5 6 -8 -9 -10
leaf_value=0.057200630847364667 -0.065858252015378746 -0.13204481497406959 0.077894007172435525 0.05034126603887195 0.060926490333076802 -0.10492361924843863 0.016267229563423566 -0.034136136174201963 0.080437523275613793
leaf_weight=32 27 20 20 21 32 32 28 20 20
leaf_count=32 27 20 20 21 32 32 28 20 20
internal_value=0 -0.0149123 0.0277912 -0.015021 -0.0323943 -0.0103525 -0.0483679 -0.0830905 0.0791658
internal_weight=0 164 88 48 132 92 60 40 40
internal_count=252 164 88 48 132 92 60 40 40
is_linear=0
shrinkage=0.1


Tree=47
num_leaves=10
num_cat=0
split_feature=2 1 1 2 2 1 0 0 2
split_gain=8.63089 18.7445 17.0479 4.75808 8.77908 6.25646 6.33628 5.66324 12.6351
threshold=66.875000000000014 150.62500000000003 161.12500000000003 70.625000000000014 74.125000000000014 176.50000000000003 43.500000000000007 46.500000000000007 71.875000000000014
decision_type=2 2 2 2 2 2 2 2 2
left_child=-1 -2 -3 5 7 -4 -7 8 -5
right_child=1 2 3 4 -6 6 -8 -9 -10
leaf_value=0.059838425368070602 0.074241599154013849 -0.079438185159649177 -0.060291299555036759 0.067156491285589134 -0.047333035916090012 -0.041355060338974001 0.034160830765962602 0.06501146726883375 -0.033978948369622231
leaf_weight=22 26 35 27 21 20 20 25 26 30
leaf_count=22 26 35 27 21 20 20 25 26 30
internal_value=0 -0.00572367 -0.0159153 -0.00275971 0.0116964 -0.0222354 0.000598212 0.0270288 0.00766506
internal_weight=0 230 204 169 97 72 45 77 51
internal_count=252 230 204 169 97 72 45 77 51
is_linear=0
shrinkage=0.1


Tree=48
num_leaves=10
num_cat=0
split_feature=1 0 0 1 1 2 0 1 2
split_gain=8.55627 10.1447 9.32475 9.28881 14.3014 21.9523 15.2307 11.8565 9.18231
threshold=205.62500000000003 41.500000000000007 30.500000000000004 184.50000000000003 177.37500000000003 69.875000000000014 46.500000000000007 167.62500000000003 70.875000000000014
decision_type=2 2 2 2 2 2 2 2 2
left_child=2 -2 -1 4 5 6 -4 -7 -5
right_child=1 -3 3 8 -6 7 -8 -9 -10
leaf_value=-0.058876007506924288 -0.005656786737116901 0.092748394012451177 0.014621640699250357 -0.0096120125427842148 -0.090523345395922661 0.0086666347539943196 -0.077400216943508876 0.11394374568015338 0.082132848895465349
leaf_weight=31 22 20 35 20 20 23 37 20 24
leaf_count=31 22 20 35 20 20 23 37 20 24
internal_value=0 0.0412028 -0.00824056 0.000528705 -0.0124764 0.00109702 -0.0326674 0.0576327 0.0404306
internal_weight=0 42 210 179 135 115 72 43 44
internal_count=252 42 210 179 135 115 72 43 44
is_linear=0
shrinkage=0.1


Tree=49
num_leaves=9
num_cat=0
split_feature=0 0 0 1 2 0 0 2
split_gain=8.28364 46.4786 23.3568 16.2588 14.5945 23.988 21.184 13.343
threshold=34.500000000000007 39.500000000000007 27.500000000000004 184.50000000000003 71.375000000000014 46.500000000000007 57.500000000000007 72.125000000000014
decision_type=2 2 2 2 2 2 2 2
left_child=2 -2 -1 4 5 -3 -7 -5
right_child=1 3 -4 7 -6 6 -8 -9
leaf_value=-0.030012143651644393 -0.14643711190332065 0.068275515096528197 0.10278105414830721 0.0076854890419377226 -0.082553471863269806 -0.091659838489947784 0.036646942929788068 0.099727689980396217
leaf_weight=27 22 35 26 36 25 31 22 28
leaf_count=27 22 35 26 36 25 31 22 28
internal_value=0 -0.00935668 0.0351317 0.00768156 -0.0151276 0.00402751 -0.0384004 0.047954
internal_weight=0 199 53 177 113 88 53 64
internal_count=252 199 53 177 113 88 53 64
is_linear=0
shrinkage=0.1


Tree=50
num_leaves=10
num_cat=0
split_feature=2 1 1 0 2 2 1 2 2
split_gain=9.26898 16.0892 11.6551 4.4202 16.3738 10.5828 17.2602 7.23766 11.2405
threshold=66.875000000000014 150.62500000000003 161.12500000000003 43.500000000000007 73.375000000000014 69.625000000000014 184.50000000000003 69.625000000000014 72.375000000000014
decision_type=2 2 2 2 2 2 2 2 2
left_child=-1 -2 -3 4 5 -4 -7 -5 -9
right_child=1 2 3 7 -6 6 -8 8 -10
leaf_value=0.062010942975228481 0.068153781501146468 -0.067897079225097384 0.045885727833956481 -0.063626779505500095 0.083534554165342584 0.019031730488590574 -0.10486325530589305 0.034776241135071308 -0.059702891707420352
leaf_weight=22 26 35 20 27 23 23 22 34 20
leaf_count=22 26 35 20 27 23 23 22 34 20
internal_value=0 -0.00593148 -0.0153737 -0.0044961 0.0110199 -0.0146392 -0.0415392 -0.0213529 -0.00021603
internal_weight=0 230 204 169 88 65 45 81 54
internal_count=252 230 204 169 88 65 45 81 54
is_linear=0
shrinkage=0.1


Tree=51
num_leaves=10
num_cat=0
split_feature=2 1 1 2 2 1 0 1 1
split_gain=7.50788 13.0323 9.44064 5.1036 6.70229 5.52986 16.0885 12.4211 12.8751
threshold=66.875000000000014 150.62500000000003 161.12500000000003 74.125000000000014 72.375000000000014 176.50000000000003 47.500000000000007 187.00000000000003 202.37500000000003
decision_type=2 2 2 2 2 2 2 2 2
left_child=-1 -2 -3 4 5 6 -4 -7 -9
right_child=1 2 3 -5 -6 7 -8 8 -10
leaf_value=0.05580984694375233 0.061338402961309137 -0.061107370512826102 -0.099503020747076898 -0.051478654742240906 0.042874484811909502 0.057256564299265546 0.025818324014544487 -0.085772422067821041 0.02094926295372156
leaf_weight=22 26 35 21 20 32 30 20 20 26
leaf_count=22 26 35 21 20 32 30 20 20 26
internal_value=0 -0.00533833 -0.0138363 -0.00404649 0.00232024 -0.00877152 -0.0383707 0.00719644 -0.0254515
internal_weight=0 230 204 169 149 117 41 76 46
internal_count=252 230 204 169 149 117 41 76 46
is_linear=0
shrinkage=0.1


Tree=52
num_leaves=10
num_cat=0
split_feature=1 0 1 2 1 0 1 1 2
split_gain=6.92198 8.84732 36.9258 27.0206 8.59217 6.615 27.9805 23.7676 13.8705
threshold=217.75000000000003 34.500000000000007 149.00000000000003 71.375000000000014 160.12500000000003 49.500000000000007 192.37500000000003 182.37500000000003 70.125000000000014
decision_type=2 2 2 2 2 2 2 2 2
left_child=1 3 -3 -1 -4 6 8 -7 -6
right_child=-2 2 4 -5 5 7 -8 -9 -10
leaf_value=0.096952365551676079 0.051083044459422439 -0.1371021960269321 0.051464983235512463 -0.051143134148283448 0.10032936283946037 -0.099494608571486814 -0.092955083250999451 0.037699231444655555 0.00091727969120256611
leaf_weight=28 24 22 28 22 25 28 20 23 32
leaf_count=28 24 22 28 22 25 28 20 23 32
internal_value=0 -0.00537716 -0.0158175 0.0317903 0.00128678 -0.0096897 0.0088115 -0.0376229 0.0445191
internal_weight=0 228 178 50 156 128 77 51 57
internal_count=252 228 178 50 156 128 77 51 57
is_linear=0
shrinkage=0.1


Tree=53
num_leaves=10
num_cat=0
split_feature=2 1 2 1 2 1 1 0 0
split_gain=6.73118 12.6653 10.0042 14.6334 11.1476 12.0757 8.97056 8.44591 2.68815
threshold=66.875000000000014 150.62500000000003 70.625000000000014 162.87500000000003 71.875000000000014 187.00000000000003 183.62500000000003 41.500000000000007 44.500000000000007
decision_type=2 2 2 2 2 2 2 2 2
left_child=-1 -2 3 -3 -4 -6 8 -7 -5
right_child=1 2 4 6 5 7 -8 -9 -10
leaf_value=0.052844254012134939 0.060676519744671309 -0.099437818538259587 0.051852952719137479 0.04388971968088299 -0.0736001167135934 -0.032326242056759921 -0.055833778576925397 0.051860924265705627 -0.0079576928168535229
leaf_weight=22 26 27 37 20 24 22 28 26 20
leaf_count=22 26 27 37 20 24 22 28 26 20
internal_value=0 -0.00505467 -0.0134322 -0.0371529 0.00724186 -0.0156833 -0.0124221 0.0132751 0.017966
internal_weight=0 230 204 95 109 72 68 48 40
internal_count=252 230 204 95 109 72 68 48 40
is_linear=0
shrinkage=0.1


Tree=54
num_leaves=10
num_cat=0
split_feature=0 0 1 1 2 2 1 2 0
split_gain=6.88639 15.3159 16.3706 33.2017 29.4829 19.3474 20.0439 7.14654 18.2255
threshold=64.500000000000014 56.500000000000007 168.12500000000003 160.12500000000003 68.125000000000014 69.375000000000014 178.12500000000003 73.875000000000014 37.500000000000007
decision_type=2 2 2 2 2 2 2 2 2
left_child=1 2 3 4 -1 -4 -7 8 -8
right_child=-2 -3 5 -5 -6 6 7 -9 -10
leaf_value=-0.073652337926129505 0.054826671754320468 -0.084348788721994916 0.11112791739234872 -0.12754181352257729 0.072014304702029089 0.088258931847910088 0.069466586100558433 -0.064432939751581708 -0.043675991126469207
leaf_weight=24 21 22 22 25 33 24 24 22 35
leaf_count=24 21 22 22 25 33 24 24 22 35
internal_value=0 -0.00498424 0.00336992 -0.0314601 0.010681 0.0258586 0.00799265 -0.01579 0.00234811
internal_weight=0 231 209 82 57 127 105 81 59
internal_count=252 231 209 82 57 127 105 81 59
is_linear=0
shrinkage=0.1


Tree=55
num_leaves=9
num_cat=0
split_feature=0 0 0 2 2 0 2 2
split_gain=6.66599 22.7264 17.0118 16.8311 12.9946 31.4186 19.476 23.1817
threshold=41.500000000000007 34.500000000000007 39.500000000000007 71.375000000000014 69.375000000000014 52.500000000000007 70.625000000000014 72.875000000000014
decision_type=2 2 2 2 2 2 2 2
left_child=1 3 -3 -1 5 -2 -6 -8
right_child=4 2 -4 -5 6 -7 7 -9
leaf_value=0.07692855881719754 0.12697734947183303 -0.13408959819511934 -0.01562747442060047 -0.036282596007610364 -0.078696489642406331 -0.014261118198434512 0.074416628523784528 -0.055572428781053299
leaf_weight=29 28 22 27 24 29 36 34 23
leaf_count=29 28 22 27 24 29 36 34 23
internal_value=0 -0.0197232 -0.0688146 0.0256631 0.0134118 0.0475307 -0.0119791 0.0219649
internal_weight=0 102 49 53 150 64 86 57
internal_count=252 102 49 53 150 64 86 57
is_linear=0
shrinkage=0.1


Tree=56
num_leaves=9
num_cat=0
split_feature=1 0 2 1 0 1 0 0
split_gain=7.04748 9.96375 9.18139 10.3173 17.8949 10.4681 14.4616 6.11313
threshold=205.62500000000003 30.500000000000004 67.125000000000014 167.12500000000003 46.500000000000007 184.50000000000003 47.500000000000007 41.500000000000007
decision_type=2 2 2 2 2 2 2 2
left_child=1 -1 -3 4 -4 6 -5 -2
right_child=7 2 3 5 -6 -7 -8 -9
leaf_value=-0.059820448847547662 0.0010183234106410633 -0.055969672898451485 0.095820066092475772 -0.083655060425160396 -0.0116279361769557 0.028910538687919957 0.020999933844027315 0.077407219260931026
leaf_weight=31 22 24 31 31 31 39 23 20
leaf_count=31 22 24 31 31 31 39 23 20
internal_value=0 -0.0074788 0.00158596 0.0104978 0.0420961 -0.0105677 -0.0390798 0.037394
internal_weight=0 210 179 155 62 93 54 42
internal_count=252 210 179 155 62 93 54 42
is_linear=0
shrinkage=0.1


Tree=57
num_leaves=10
num_cat=0
split_feature=2 1 2 1 1 2 1 1 0
split_gain=6.71021 8.37235 8.77235 11.1549 8.34676 7.75491 10.3671 7.44018 2.06449
threshold=66.875000000000014 150.62500000000003 70.625000000000014 162.87500000000003 183.62500000000003 71.875000000000014 187.00000000000003 201.12500000000003 44.500000000000007
decision_type=2 2 2 2 2 2 2 2 2
left_child=-1 -2 3 -3 8 -4 -7 -8 -5
right_child=1 2 5 4 -6 6 7 -9 -10
leaf_value=0.05276187248528004 0.048395876758373702 -0.088450889951652956 0.044709640255550277 0.039552669376134879 -0.054353291408291884 -0.065282966134448853 0.059853922877283333 -0.019509594418384412 -0.005884001851081848
leaf_weight=22 26 27 37 20 28 24 21 27 20
leaf_count=22 26 27 37 20 28 24 21 27 20
internal_value=0 -0.00504679 -0.0118581 -0.0340705 -0.0124782 0.00750127 -0.0116197 0.0152119 0.0168343
internal_weight=0 230 204 95 68 109 72 48 40
internal_count=252 230 204 95 68 109 72 48 40
is_linear=0
shrinkage=0.1


Tree=58
num_leaves=9
num_cat=0
split_feature=1 2 0 1 2 0 1 1
split_gain=8.03977 21.578 8.82503 20.41 10.6212 25.0199 20.5677 10.0732
threshold=148.12500000000003 67.375000000000014 39.500000000000007 164.75000000000003 73.125000000000014 42.500000000000007 182.37500000000003 195.37500000000003
decision_type=2 2 2 2 2 2 2 2
left_child=-1 -2 7 -4 5 -5 -7 -3
right_child=1 2 3 4 -6 6 -8 -9
leaf_value=-0.050520383406962667 0.1003622603433376 -0.068387988793688848 0.079949872579891237 -0.12464582925662399 0.051357890259135855 -0.05240543984314975 0.057588429880492835 0.015886173842717771
leaf_weight=28 22 37 32 20 22 34 34 23
leaf_count=28 22 37 32 20 22 34 34 23
internal_value=0 0.00631505 -0.00392772 0.00965898 -0.0107893 -0.0263261 0.0025915 -0.0360829
internal_weight=0 224 202 142 110 88 68 60
internal_count=252 224 202 142 110 88 68 60
is_linear=0
shrinkage=0.1


Tree=59
num_leaves=10
num_cat=0
split_feature=1 2 1 1 2 1 0 2 2
split_gain=6.60671 12.362 5.88771 11.7842 32.1689 24.2507 17.7484 8.99873 9.88394
threshold=144.50000000000003 67.625000000000014 155.37500000000003 178.87500000000003 69.375000000000014 168.12500000000003 47.500000000000007 72.875000000000014 70.875000000000014
decision_type=2 2 2 2 2 2 2 2 2
left_child=-1 -2 -3 4 -4 -6 7 8 -5
right_child=1 2 3 6 5 -7 -8 -9 -10
leaf_value=-0.052353418144312769 0.062676171376369896 -0.053086139939048073 0.14073927335441114 -0.011386510375000183 -0.084984271811402376 0.053596821533782146 -0.078905683755874645 -0.035160781414846763 0.084526663070375277
leaf_weight=22 32 22 20 21 23 28 34 28 22
leaf_count=22 32 22 20 21 23 28 34 28 22
internal_value=0 0.00500772 -0.00431243 0.00178428 0.0332515 -0.00890053 -0.0194936 0.0089573 0.0376853
internal_weight=0 230 198 176 71 51 105 71 43
internal_count=252 230 198 176 71 51 105 71 43
is_linear=0
shrinkage=0.1


Tree=60
num_leaves=9
num_cat=0
split_feature=0 1 0 2 1 2 1 0
split_gain=6.17071 33.3197 13.3564 10.1502 18.3014 7.70648 20.9593 17.3588
threshold=34.500000000000007 149.00000000000003 27.500000000000004 69.375000000000014 176.50000000000003 70.625000000000014 175.75000000000003 43.500000000000007
decision_type=2 2 2 2 2 2 2 2
left_child=2 -2 -1 4 -3 -5 -7 -8
right_child=1 3 -4 5 -6 6 7 -9
leaf_value=-0.0189401389656942 -0.12414015890522437 -0.0022324278558555405 0.081478561940961161 -0.048536365751076394 0.11237553215839646 0.087233520461165392 0.038851960872610412 -0.072920531937570296
leaf_weight=27 22 38 26 37 22 23 24 33
leaf_count=27 22 38 26 37 22 23 24 33
internal_value=0 -0.00807567 0.0303219 0.00635042 0.0397905 -0.0107983 0.00665551 -0.0258584
internal_weight=0 199 53 177 60 117 80 57
internal_count=252 199 53 177 60 117 80 57
is_linear=0
shrinkage=0.1


Tree=61
num_leaves=9
num_cat=0
split_feature=1 2 1 0 1 2 1 0
split_gain=5.89868 6.80111 13.0771 13.4883 11.0791 8.54898 17.3972 6.21021
threshold=205.62500000000003 67.125000000000014 151.37500000000003 37.500000000000007 164.75000000000003 70.125000000000014 184.50000000000003 41.500000000000007
decision_type=2 2 2 2 2 2 2 2
left_child=1 -1 -3 -4 -5 -6 -7 -2
right_child=7 2 3 4 5 6 -8 -9
leaf_value=-0.054716463616261118 -0.0024526403708891435 0.064208437999089568 -0.063918825812839183 0.056627301967913102 0.023952123321391443 -0.099043697535991682 0.0167245963105449 0.074540404975414282
leaf_weight=26 22 27 37 31 37 25 27 20
leaf_count=26 22 27 37 31 37 25 27 20
internal_value=0 -0.00684214 -7.72943e-05 -0.0111328 0.00514289 -0.0127899 -0.0389332 0.0342107
internal_weight=0 210 184 157 120 89 52 42
internal_count=252 210 184 157 120 89 52 42
is_linear=0
shrinkage=0.1


Tree=62
num_leaves=9
num_cat=0
split_feature=0 0 2 1 2 2 0 0
split_gain=6.06846 30.2606 12.1056 10.8142 11.7477 6.97218 11.8932 17.1161
threshold=34.500000000000007 39.500000000000007 71.125000000000014 185.62500000000003 72.125000000000014 71.375000000000014 46.500000000000007 57.500000000000007
decision_type=2 2 2 2 2 2 2 2
left_child=2 -2 -1 5 -5 6 -3 -8
right_child=1 3 -4 4 -6 -7 7 -9
leaf_value=0.080648006290197374 -0.11861666102300993 0.045253439578745107 -0.015089683876638966 -9.8778033519492434e-05 0.087369990455252788 -0.057965564555846727 -0.077102649139781154 0.038229066810824656
leaf_weight=25 22 36 28 34 28 26 31 22
leaf_count=25 22 36 28 34 28 26 31 22
internal_value=0 -0.00800849 0.0300696 0.00573942 0.0394032 -0.0124098 0.000898665 -0.0292291
internal_weight=0 199 53 177 62 115 89 53
internal_count=252 199 53 177 62 115 89 53
is_linear=0
shrinkage=0.1


Tree=63
num_leaves=10
num_cat=0
split_feature=2 1 2 1 1 0 1 1 0
split_gain=5.69132 8.51876 9.90258 10.9309 8.44295 17.4053 7.19028 6.28616 2.20162
threshold=66.875000000000014 150.62500000000003 70.625000000000014 162.87500000000003 178.87500000000003 43.500000000000007 207.00000000000003 183.62500000000003 44.500000000000007
decision_type=2 2 2 2 2 2 2 2 2
left_child=-1 -2 3 -3 -4 6 -6 8 -5
right_child=1 2 4 7 5 -7 -8 -9 -10
leaf_value=0.048591350018978123 0.049260070733726027 -0.088950216935740581 0.046336664603306703 0.035154945515096188 0.073858146369457242 -0.069302288293838499 -0.010937370210886003 -0.050084368924477277 -0.011766450256109237
leaf_weight=22 26 27 39 20 20 30 20 28 20
leaf_count=22 26 27 39 20 20 30 20 28 20
internal_value=0 -0.00464787 -0.0115185 -0.0351184 0.00905025 -0.0117236 0.0314604 -0.013744 0.0116942
internal_weight=0 230 204 95 109 70 40 68 40
internal_count=252 230 204 95 109 70 40 68 40
is_linear=0
shrinkage=0.1


Tree=64
num_leaves=10
num_cat=0
split_feature=1 0 2 1 0 0 0 0 2
split_gain=5.44855 6.80079 9.06089 7.62758 13.4628 8.72014 11.9129 9.3919 5.79051
threshold=205.62500000000003 30.500000000000004 67.125000000000014 167.12500000000003 46.500000000000007 46.500000000000007 41.500000000000007 54.500000000000007 72.125000000000014
decision_type=2 2 2 2 2 2 2 2 2
left_child=1 -1 -3 4 -4 6 -5 -7 -2
right_child=8 2 3 5 -6 7 -8 -9 -10
leaf_value=-0.049818898304816221 0.071822565533220778 -0.056263614942630137 0.083533733266015209 0.007831054481749351 -0.009663247220939206 0.069990367171439263 -0.092153244533322076 -0.021401557974193408 -0.002523268081925132
leaf_weight=31 20 24 31 26 31 22 22 23 22
leaf_count=31 20 24 31 26 31 22 22 23 22
internal_value=0 -0.0065759 0.000913109 0.00976628 0.0369352 -0.00834636 -0.0379951 0.0232789 0.0328795
internal_weight=0 210 179 155 62 93 48 45 42
internal_count=252 210 179 155 62 93 48 45 42
is_linear=0
shrinkage=0.1


Tree=65
num_leaves=9
num_cat=0
split_feature=1 2 0 1 2 0 1 1
split_gain=5.80655 16.1233 6.52952 16.9997 8.92877 23.5294 19.1347 7.44813
threshold=149.00000000000003 67.375000000000014 39.500000000000007 164.75000000000003 73.125000000000014 42.500000000000007 182.37500000000003 195.37500000000003
decision_type=2 2 2 2 2 2 2 2
left_child=-1 -2 7 -4 5 -5 -7 -3
right_child=1 2 3 4 -6 6 -8 -9
leaf_value=-0.040529755286632052 0.086920787952840334 -0.060588137379714427 0.073729289491330424 -0.11970239602029326 0.046869971399957487 -0.049359667257351039 0.056733280836659322 0.012667283707338831
leaf_weight=31 22 35 31 20 22 34 34 23
leaf_count=31 22 35 31 20 22 34 34 23
internal_value=0 0.00568517 -0.00329565 0.008322 -0.010111 -0.0243562 0.00368681 -0.0315386
internal_weight=0 221 199 141 110 88 68 58
internal_count=252 221 199 141 110 88 68 58
is_linear=0
shrinkage=0.1


Tree=66
num_leaves=9
num_cat=0
split_feature=0 1 2 2 1 2 1 0
split_gain=5.68995 27.2906 10.3599 7.89575 15.4956 5.86776 19.3514 14.7695
threshold=34.500000000000007 149.00000000000003 71.375000000000014 69.375000000000014 176.50000000000003 70.625000000000014 175.75000000000003 43.500000000000007
decision_type=2 2 2 2 2 2 2 2
left_child=2 -2 -1 4 -3 -5 -7 -8
right_child=1 3 -4 5 -6 6 7 -9
leaf_value=0.069337096810340879 -0.11279477797109971 -0.0038729488849639894 -0.019482871610671283 -0.042753467658484312 0.10158426334912128 0.082831815014714788 0.033853690667698784 -0.069246226684613665
leaf_weight=29 22 38 24 37 22 23 24 33
leaf_count=29 22 38 24 37 22 23 24 33
internal_value=0 -0.00775471 0.0291167 0.00530112 0.0347947 -0.00982379 0.00540619 -0.0258357
internal_weight=0 199 53 177 60 117 80 57
internal_count=252 199 53 177 60 117 80 57
is_linear=0
shrinkage=0.1


Tree=67
num_leaves=11
num_cat=0
split_feature=0 0 2 1 1 2 1 1 2 2
split_gain=5.25457 8.06293 16.9342 34.3936 23.2928 12.188 18.2831 24.8882 12.4518 10.308
threshold=26.500000000000004 41.500000000000007 68.875000000000014 200.37500000000003 171.00000000000003 72.875000000000014 182.37500000000003 168.37500000000003 67.625000000000014 70.125000000000014
decision_type=2 2 2 2 2 2 2 2 2 2
left_child=-1 2 -2 4 -4 6 7 8 -3 -8
right_child=1 5 3 -5 -6 -7 9 -9 -10 -11
leaf_value=0.049180992245674134 -0.10690545979000272 -0.024681466817855838 -0.024693018794059756 -0.10642212246145522 0.12792677597026342 -0.057438164171965227 0.12839541107416153 -0.081692419041480335 0.069513155106041169 0.026867096282658168
leaf_weight=20 21 23 20 21 20 23 20 28 36 20
leaf_count=20 21 23 20 21 20 23 20 28 36 20
internal_value=0 -0.00423974 -0.0294537 -0.00278999 0.0516169 0.0095439 0.0216745 -0.00405273 0.0327932 0.0776313
internal_weight=0 232 82 61 40 150 127 87 59 40
internal_count=252 232 82 61 40 150 127 87 59 40
is_linear=0
shrinkage=0.1


Tree=68
num_leaves=9
num_cat=0
split_feature=2 1 1 1 2 2 0 2
split_gain=4.8823 8.97961 9.19091 4.93641 13.326 18.1965 11.613 4.99829
threshold=66.875000000000014 150.62500000000003 161.12500000000003 183.62500000000003 71.125000000000014 72.875000000000014 42.500000000000007 69.875000000000014
decision_type=2 2 2 2 2 2 2 2
left_child=-1 -2 -3 6 -5 -6 -4 -8
right_child=1 2 3 4 5 -7 7 -9
leaf_value=0.045005371895703403 0.051042043380081087 -0.05800047461475645 0.064314181189383243 -0.068156529793685125 0.076268663823604588 -0.034786341422133979 -0.046362545900046827 0.021326201856136325
leaf_weight=22 26 35 31 33 25 36 24 20
leaf_count=22 26 35 31 33 25 36 24 20
internal_value=0 -0.00430486 -0.0113589 -0.00169938 -0.0169655 0.010728 0.0174342 -0.0155949
internal_weight=0 230 204 169 94 61 75 44
internal_count=252 230 204 169 94 61 75 44
is_linear=0
shrinkage=0.1


Tree=69
num_leaves=10
num_cat=0
split_feature=1 2 1 0 1 0 1 1 2
split_gain=4.83561 6.02483 9.39901 11.7034 7.21133 9.41475 12.45 4.25927 3.82995
threshold=205.62500000000003 67.125000000000014 151.37500000000003 37.500000000000007 164.75000000000003 46.500000000000007 178.87500000000003 178.87500000000003 72.125000000000014
decision_type=2 2 2 2 2 2 2 2 2
left_child=1 -1 -3 -4 -5 7 -7 -6 -2
right_child=8 2 3 4 5 6 -8 -9 -10
leaf_value=-0.051254346278997567 0.062646386250853545 0.054672543635522874 -0.058370118628482563 0.047496646450411892 -0.075153709557794393 0.076917069066654561 -0.025296041942559758 -0.01067221031524241 0.0021826733919707211
leaf_weight=26 20 27 37 31 21 22 26 20 22
leaf_count=26 20 27 37 31 21 22 26 20 22
internal_value=0 -0.00619498 0.000172101 -0.00920059 0.00596002 -0.00850779 0.0215516 -0.0436993 0.0309749
internal_weight=0 210 184 157 120 89 48 41 42
internal_count=252 210 184 157 120 89 48 41 42
is_linear=0
shrinkage=0.1


Tree=70
num_leaves=9
num_cat=0
split_feature=0 1 2 2 1 2 1 0
split_gain=5.29354 23.7253 10.018 7.22749 11.9504 5.54325 13.9203 12.1173
threshold=34.500000000000007 149.00000000000003 71.375000000000014 69.375000000000014 176.50000000000003 70.625000000000014 175.75000000000003 43.500000000000007
decision_type=2 2 2 2 2 2 2 2
left_child=2 -2 -1 4 -3 -5 -7 -8
right_child=1 3 -4 5 -6 6 7 -9
leaf_value=0.067635256944802311 -0.10541839765554124 -0.0010461090181611086 -0.01970676019166907 -0.041783369548392263 0.091565132818438796 0.070693426546843158 0.032593172646981354 -0.06079201770551277
leaf_weight=29 22 38 24 37 22 23 24 33
leaf_count=29 22 38 24 37 22 23 24 33
internal_value=0 -0.0074797 0.0280842 0.00469347 0.0329113 -0.00977723 0.0050256 -0.0214719
internal_weight=0 199 53 177 60 117 80 57
internal_count=252 199 53 177 60 117 80 57
is_linear=0
shrinkage=0.1


Tree=71
num_leaves=9
num_cat=0
split_feature=2 1 1 1 2 0 0 0
split_gain=4.96565 7.34627 8.64178 4.8518 6.91049 7.83464 8.54456 5.61878
threshold=66.875000000000014 150.62500000000003 161.12500000000003 207.00000000000003 68.875000000000014 34.500000000000007 46.500000000000007 41.500000000000007
decision_type=2 2 2 2 2 2 2 2
left_child=-1 -2 -3 4 -4 -6 7 -7
right_child=1 2 3 -5 5 6 -8 -9
leaf_value=0.045387937534939166 0.045719354394644217 -0.055948561376758993 -0.036280856344715826 -0.032814759261121873 0.072665784169327133 0.012435798961669207 0.039077123006184898 -0.060799297283996238
leaf_weight=22 26 35 28 38 22 20 39 22
leaf_count=22 26 35 28 38 22 20 39 22
internal_value=0 -0.00434146 -0.0107218 -0.00135526 0.0077704 0.0197455 0.00537209 -0.0259254
internal_weight=0 230 204 169 131 103 81 42
internal_count=252 230 204 169 131 103 81 42
is_linear=0
shrinkage=0.1


Tree=72
num_leaves=10
num_cat=0
split_feature=1 0 2 2 2 1 1 1 0
split_gain=4.6327 5.65319 8.10417 5.37216 15.6226 20.3048 13.3213 13.1085 3.97943
threshold=205.62500000000003 30.500000000000004 67.125000000000014 71.125000000000014 69.625000000000014 168.37500000000003 184.50000000000003 153.62500000000003 41.500000000000007
decision_type=2 2 2 2 2 2 2 2 2
left_child=1 -1 -3 4 5 7 -5 -4 -2
right_child=8 2 3 6 -6 -7 -8 -9 -10
leaf_value=-0.045489631376920213 0.00096935196356339902 -0.05330956988036633 -0.017043216632945196 -0.057689485652372245 0.080561608448624616 -0.073622125974641392 0.042084053255941556 0.094690020879109715 0.06260169275105
leaf_weight=31 22 24 21 32 32 26 23 21 20
leaf_count=31 22 24 21 32 32 26 23 21 20
internal_value=0 -0.00606362 0.000764352 0.00913709 0.0229438 -0.00417048 -0.015966 0.0388234 0.0303181
internal_weight=0 210 179 155 100 68 55 42 42
internal_count=252 210 179 155 100 68 55 42 42
is_linear=0
shrinkage=0.1


Tree=73
num_leaves=10
num_cat=0
split_feature=2 1 2 1 1 1 2 1 0
split_gain=5.00824 6.39563 7.50212 10.6454 8.06886 5.33255 6.87944 9.96476 2.51834
threshold=66.875000000000014 150.62500000000003 70.625000000000014 162.87500000000003 183.62500000000003 207.00000000000003 71.875000000000014 187.00000000000003 44.500000000000007
decision_type=2 2 2 2 2 2 2 2 2
left_child=-1 -2 3 -3 8 6 -4 -8 -5
right_child=1 2 5 4 -6 -7 7 -9 -10
leaf_value=0.045582149651917543 0.042349579615088617 -0.083978772439338545 0.056821919791400437 0.044150898978114132 -0.050933154995021018 -0.029146923535856708 -0.048599628793696566 0.042526483504722518 -0.0060322065651416783
leaf_weight=22 26 27 32 20 28 29 24 24 20
leaf_count=22 26 27 32 20 28 29 24 24 20
internal_value=0 -0.00436003 -0.0103132 -0.0308545 -0.0097611 0.00758977 0.0209068 -0.00303657 0.0190593
internal_weight=0 230 204 95 68 109 80 48 40
internal_count=252 230 204 95 68 109 80 48 40
is_linear=0
shrinkage=0.1


Tree=74
num_leaves=10
num_cat=0
split_feature=0 1 2 1 0 2 1 1 2
split_gain=5.08114 7.13368 11.5941 12.5534 12.9149 10.2041 22.4683 11.598 11.0366
threshold=26.500000000000004 216.12500000000003 67.125000000000014 152.50000000000003 33.500000000000007 69.125000000000014 167.62500000000003 178.12500000000003 71.625000000000014
decision_type=2 2 2 2 2 2 2 2 2
left_child=-1 2 -2 -4 -5 -6 -7 -8 -9
right_child=1 -3 3 4 5 6 7 8 -10
leaf_value=0.048362547606229787 -0.07411878871917725 0.046288581788539888 0.058832387292179572 -0.085766903488408958 0.053492101999344656 -0.094060543179512027 0.064776337367516978 0.037132414007051424 -0.056795050563483412
leaf_weight=20 25 25 29 21 27 27 27 22 29
leaf_count=20 25 25 29 21 27 27 27 22 29
internal_value=0 -0.00416919 -0.0102631 -0.00149174 -0.0129257 -0.00133735 -0.0154364 0.0117797 -0.0162773
internal_weight=0 232 207 182 153 132 105 78 51
internal_count=252 232 207 182 153 132 105 78 51
is_linear=0
shrinkage=0.1


Tree=75
num_leaves=10
num_cat=0
split_feature=2 0 1 1 2 1 0 2 2
split_gain=5.40009 6.80316 13.3021 19.9371 9.22168 7.72573 7.38466 12.8118 4.70824
threshold=66.875000000000014 34.500000000000007 155.37500000000003 164.75000000000003 71.125000000000014 170.00000000000003 48.500000000000007 71.375000000000014 70.625000000000014
decision_type=2 2 2 2 2 2 2 2 2
left_child=-1 4 -3 -4 -2 -5 7 -7 -8
right_child=1 2 3 5 -6 6 8 -9 -10
leaf_value=0.047331775589422753 0.074610674575619082 -0.074460403621196755 0.088834105644907277 -0.07338204562664033 -0.010846222059002944 -0.036414200357264941 -0.0030223692800583589 0.054182388331439048 -0.068513416855231588
leaf_weight=22 23 30 21 20 28 27 21 37 23
leaf_count=22 23 30 21 20 28 27 21 37 23
internal_value=0 -0.00452739 -0.0137075 -0.00147542 0.0276932 -0.0162918 -0.00571957 0.015962 -0.0372563
internal_weight=0 230 179 149 51 128 108 64 44
internal_count=252 230 179 149 51 128 108 64 44
is_linear=0
shrinkage=0.1


Tree=76
num_leaves=10
num_cat=0
split_feature=2 0 0 0 0 1 2 2 2
split_gain=4.37407 5.51056 12.2024 8.32738 5.47843 19.0659 18.8982 13.7806 14.3405
threshold=66.875000000000014 34.500000000000007 39.500000000000007 27.500000000000004 48.500000000000007 167.62500000000003 71.125000000000014 68.625000000000014 70.375000000000014
decision_type=2 2 2 2 2 2 2 2 2
left_child=-1 3 -3 -2 5 -4 -7 -6 -9
right_child=1 2 4 -5 7 6 -8 8 -10
leaf_value=0.042598595537922605 -0.016284559071063996 -0.085954133421182632 -0.055425234826711516 0.064547309680626941 0.039208031699061396 -0.020645843770193018 0.098191432561725384 -0.11767749033868313 -0.010365720757875931
leaf_weight=22 25 20 26 26 25 23 32 20 33
leaf_count=22 25 20 26 26 25 23 32 20 33
internal_value=0 -0.00407465 -0.0123368 0.0249238 -0.00307675 0.0151385 0.0484958 -0.0219925 -0.0508607
internal_weight=0 230 179 51 159 81 55 78 53
internal_count=252 230 179 51 159 81 55 78 53
is_linear=0
shrinkage=0.1


Tree=77
num_leaves=9
num_cat=0
split_feature=1 2 0 1 2 0 1 1
split_gain=4.44254 10.5172 5.6776 15.7093 9.10386 20.2765 13.9239 6.1166
threshold=149.00000000000003 67.375000000000014 39.500000000000007 164.75000000000003 73.125000000000014 42.500000000000007 182.37500000000003 195.37500000000003
decision_type=2 2 2 2 2 2 2 2
left_child=-1 -2 7 -4 5 -5 -7 -3
right_child=1 2 3 4 -6 6 -8 -9
leaf_value=-0.035451165995290204 0.070582596009427859 -0.054941806069442205 0.071428577649977898 -0.1120614917576313 0.048370069468563259 -0.042769347218906184 0.047732198413680586 0.011443371941214024
leaf_weight=31 22 35 31 20 22 34 34 23
leaf_count=31 22 35 31 20 22 34 34 23
internal_value=0 0.00497279 -0.00228056 0.00855273 -0.00916683 -0.0235511 0.00248143 -0.0286166
internal_weight=0 221 199 141 110 88 68 58
internal_count=252 221 199 141 110 88 68 58
is_linear=0
shrinkage=0.1


Tree=78
num_leaves=9
num_cat=0
split_feature=0 0 1 2 2 0 2 1
split_gain=4.57046 6.02587 15.1582 41.1674 9.68499 14.2024 17.9651 16.1658
threshold=26.500000000000004 41.500000000000007 200.37500000000003 69.125000000000014 72.875000000000014 49.500000000000007 68.625000000000014 173.00000000000003
decision_type=2 2 2 2 2 2 2 2
left_child=-1 2 3 -2 5 7 -7 -3
right_child=1 4 -4 -5 -6 6 -8 -9
leaf_value=0.045867904722690589 -0.10611885083110438 0.0021821707189083098 -0.099029180194650387 0.063387424694864372 -0.05174750517243925 0.04129708538184295 -0.055974949151277542 0.11480520906356664
leaf_weight=20 23 25 21 38 23 37 39 26
leaf_count=20 23 25 21 38 23 37 39 26
internal_value=0 -0.00395413 -0.0257515 -0.000524778 0.00796177 0.0187753 -0.00861883 0.0595978
internal_weight=0 232 82 61 150 127 76 51
internal_count=252 232 82 61 150 127 76 51
is_linear=0
shrinkage=0.1


Tree=79
num_leaves=9
num_cat=0
split_feature=1 2 1 0 1 2 0 2
split_gain=4.32784 6.21754 7.65608 9.12489 7.17379 11.4121 20.0589 2.68252
threshold=205.62500000000003 67.125000000000014 151.37500000000003 37.500000000000007 164.75000000000003 70.125000000000014 47.500000000000007 72.125000000000014
decision_type=2 2 2 2 2 2 2 2
left_child=1 -1 -3 -4 -5 -6 -7 -2
right_child=7 2 3 4 5 6 -8 -9
leaf_value=-0.051635024524652046 0.055809505777433516 0.04979572955656935 -0.051268138233068833 0.046963340332431186 0.033556019333568783 -0.094412389089321272 0.030640006065368652 0.0052072475579651922
leaf_weight=26 20 27 37 31 37 29 23 22
leaf_count=26 20 27 37 31 37 29 23 22
internal_value=0 -0.00586071 0.000607395 -0.00785175 0.00553498 -0.00889513 -0.0391008 0.0293036
internal_weight=0 210 184 157 120 89 52 42
internal_count=252 210 184 157 120 89 52 42
is_linear=0
shrinkage=0.1


Tree=80
num_leaves=9
num_cat=0
split_feature=0 1 0 2 0 1 1 2
split_gain=4.44149 18.7754 7.84688 5.11069 10.2599 4.18218 9.37154 15.4089
threshold=34.500000000000007 149.00000000000003 27.500000000000004 69.375000000000014 52.500000000000007 174.12500000000003 187.00000000000003 72.375000000000014
decision_type=2 2 2 2 2 2 2 2
left_child=2 -2 -1 4 -3 -5 -7 -8
right_child=1 3 -4 5 -6 6 7 -9
leaf_value=-0.012033699176929615 -0.093976457687941467 0.065110435429960492 0.064935641821760398 0.019609820802469511 -0.018009927868843079 -0.080330177247524268 -0.048691748164128516 0.052888043756995885
leaf_weight=27 22 33 26 37 27 20 32 28
leaf_count=27 22 33 26 37 27 20 32 28
internal_value=0 -0.00685134 0.0257248 0.00397777 0.0277063 -0.00819069 -0.0210484 -0.00128785
internal_weight=0 199 53 177 60 117 80 60
internal_count=252 199 53 177 60 117 80 60
is_linear=0
shrinkage=0.1


Tree=81
num_leaves=10
num_cat=0
split_feature=0 1 2 1 1 1 0 0 0
split_gain=4.43635 5.23314 11.2991 12.4175 12.1147 11.8467 12.2401 10.8108 2.54363
threshold=26.500000000000004 216.12500000000003 67.125000000000014 152.50000000000003 161.12500000000003 183.62500000000003 42.500000000000007 46.500000000000007 52.500000000000007
decision_type=2 2 2 2 2 2 2 2 2
left_child=-1 2 -2 -4 -5 6 -6 -7 -8
right_child=1 -3 3 4 5 7 8 -9 -10
leaf_value=0.045189909264445306 -0.072153030157089237 0.039321086823940282 0.059540779997819461 -0.075499596714973458 0.079514280387333464 -0.071729673841036859 0.018766845948994162 0.015082615413344824 -0.030452118601117819
leaf_weight=20 25 25 29 25 28 32 21 26 21
leaf_count=20 25 25 29 25 28 32 21 26 21
internal_value=0 -0.00389568 -0.0091151 -0.000456042 -0.011828 0.000607872 0.0283001 -0.0328138 -0.00584264
internal_weight=0 232 207 182 153 128 70 58 42
internal_count=252 232 207 182 153 128 70 58 42
is_linear=0
shrinkage=0.1


Tree=82
num_leaves=10
num_cat=0
split_feature=2 1 2 1 1 1 2 0 0
split_gain=4.76787 4.60781 6.06651 8.19956 6.37822 5.54263 7.34391 4.72747 1.38847
threshold=66.875000000000014 150.62500000000003 70.625000000000014 162.87500000000003 183.62500000000003 187.95000000000002 72.125000000000014 39.500000000000007 44.500000000000007
decision_type=2 2 2 2 2 2 2 2 2
left_child=-1 -2 3 -3 8 6 -4 -7 -5
right_child=1 2 5 4 -6 7 -8 -9 -10
leaf_value=0.044474854726683014 0.035393000737978866 -0.07440245283974542 0.066616524038491429 0.034988399287685754 -0.045872002981403578 -0.052249249869159291 -0.0094093066950639084 0.0071550202933517663 -0.0022737394273281098
leaf_weight=22 26 27 27 20 28 21 24 37 20
leaf_count=22 26 27 27 20 28 21 24 37 20
internal_value=0 -0.00425412 -0.00930718 -0.0277788 -0.00926651 0.00679197 0.0308397 -0.0143534 0.0163573
internal_weight=0 230 204 95 68 109 51 58 40
internal_count=252 230 204 95 68 109 51 58 40
is_linear=0
shrinkage=0.1


Tree=83
num_leaves=9
num_cat=0
split_feature=0 0 1 1 0 0 2 2
split_gain=4.31121 10.1618 12.8513 26.594 15.92 11.3785 8.93359 11.5543
threshold=64.500000000000014 56.500000000000007 168.12500000000003 160.12500000000003 41.500000000000007 46.500000000000007 73.375000000000014 70.125000000000014
decision_type=2 2 2 2 2 2 2 2
left_child=1 2 3 4 -1 6 7 -4
right_child=-2 -3 5 -5 -6 -7 -8 -9
leaf_value=-0.038682828314842717 0.043380624889617879 -0.068589746799658652 0.031856497550575895 -0.11398967742919922 0.067423411745291498 0.069469783032262644 0.055841043032705789 -0.052446573771334985
leaf_weight=31 21 22 29 25 26 37 24 37
leaf_count=31 21 22 29 25 26 37 24 37
internal_value=0 -0.00394369 0.00286115 -0.0279988 0.00971651 0.0227865 0.00359445 -0.0154043
internal_weight=0 231 209 82 57 127 90 66
internal_count=252 231 209 82 57 127 90 66
is_linear=0
shrinkage=0.1


Tree=84
num_leaves=10
num_cat=0
split_feature=0 0 1 2 2 1 1 0 2
split_gain=4.04975 4.42659 11.9993 32.2291 9.28566 11.7016 22.4516 14.2506 7.66368
threshold=26.500000000000004 41.500000000000007 200.37500000000003 69.125000000000014 72.875000000000014 182.37500000000003 168.37500000000003 51.500000000000007 70.125000000000014
decision_type=2 2 2 2 2 2 2 2 2
left_child=-1 2 3 -2 5 6 7 -3 -7
right_child=1 4 -4 -5 -6 8 -8 -9 -10
leaf_value=0.04317601621150971 -0.093389693226503298 -0.020219288926039424 -0.087601060881501158 0.056590269760865924 -0.051974473699279461 0.10561652381904424 -0.077244386249887095 0.078200590802777206 0.018074084774125369
leaf_weight=20 23 28 21 38 23 20 28 31 20
leaf_count=20 23 28 21 38 23 20 28 31 20
internal_value=0 -0.00372207 -0.0224043 4.04477e-05 0.0064909 0.0170791 -0.00350304 0.0314929 0.0618453
internal_weight=0 232 82 61 150 127 87 59 40
internal_count=252 232 82 61 150 127 87 59 40
is_linear=0
shrinkage=0.1


Tree=85
num_leaves=9
num_cat=0
split_feature=0 1 2 2 0 2 1 0
split_gain=3.8927 17.7346 8.57261 5.05986 8.66614 3.5297 12.3483 11.9933
threshold=34.500000000000007 149.00000000000003 71.375000000000014 69.375000000000014 52.500000000000007 70.625000000000014 175.75000000000003 43.500000000000007
decision_type=2 2 2 2 2 2 2 2
left_child=2 -2 -1 4 -3 -5 -7 -8
right_child=1 3 -4 5 -6 6 7 -9
leaf_value=0.060670041986580547 -0.091089982065287511 0.062097330380118256 -0.020125950174406174 -0.033537173668879115 -0.01429497743094409 0.065663808940545382 0.032646112702786924 -0.06025985687068014
leaf_weight=29 22 33 24 37 27 23 24 33
leaf_count=29 22 33 24 37 27 23 24 33
internal_value=0 -0.00641411 0.0240832 0.00411057 0.0277208 -0.00799723 0.00381499 -0.0211416
internal_weight=0 199 53 177 60 117 80 57
internal_count=252 199 53 177 60 117 80 57
is_linear=0
shrinkage=0.1


Tree=86
num_leaves=10
num_cat=0
split_feature=1 0 2 2 2 1 1 1 2
split_gain=3.64779 4.44628 6.07213 5.44375 13.9072 19.1719 11.1304 10.5145 2.3962
threshold=205.62500000000003 30.500000000000004 67.125000000000014 71.125000000000014 69.625000000000014 168.37500000000003 184.50000000000003 153.62500000000003 72.125000000000014
decision_type=2 2 2 2 2 2 2 2 2
left_child=1 -1 -3 4 5 7 -5 -4 -2
right_child=8 2 3 6 -6 -7 -8 -9 -10
leaf_value=-0.040345677396943495 0.051954426746815441 -0.046131466267009577 -0.012019087374210358 -0.0554859945375938 0.07618308430537582 -0.071247975084070977 0.03571458024823148 0.088050159102394471 0.0041288754140788855
leaf_weight=31 20 24 21 32 32 26 23 21 22
leaf_count=31 20 24 21 32 32 26 23 21 22
internal_value=0 -0.00538059 0.000674817 0.00792224 0.0218206 -0.00376169 -0.0173476 0.0380155 0.0269029
internal_weight=0 210 179 155 100 68 55 42 42
internal_count=252 210 179 155 100 68 55 42 42
is_linear=0
shrinkage=0.1


Tree=87
num_leaves=10
num_cat=0
split_feature=2 0 1 1 2 1 1 2 0
split_gain=4.37476 5.33417 8.97124 13.644 7.24362 6.31823 6.41012 12.3766 6.69865
threshold=66.875000000000014 34.500000000000007 155.37500000000003 164.75000000000003 71.375000000000014 170.00000000000003 191.25000000000003 71.375000000000014 43.500000000000007
decision_type=2 2 2 2 2 2 2 2 2
left_child=-1 4 -3 -4 -2 -5 8 -8 -7
right_child=1 2 3 5 -6 6 7 -9 -10
leaf_value=0.042601947147737851 0.059987378893075163 -0.062095938796798394 0.072550646180198311 -0.066043845862150202 -0.015517587882156174 0.064397474919401468 -0.09114866459742188 0.0060382170112509483 -0.009762559779759112
leaf_weight=22 27 30 21 20 24 21 20 38 29
leaf_count=22 27 30 21 20 24 21 20 38 29
internal_value=0 -0.00407497 -0.0122038 -0.0021584 0.0244556 -0.0144154 -0.00485452 -0.0274745 0.0213847
internal_weight=0 230 179 149 51 128 108 58 50
internal_count=252 230 179 149 51 128 108 58 50
is_linear=0
shrinkage=0.1


Tree=88
num_leaves=9
num_cat=0
split_feature=2 1 1 1 0 1 0 1
split_gain=3.54356 5.87778 6.178 4.54754 4.90483 11.9261 9.48373 12.8697
threshold=66.875000000000014 150.62500000000003 162.12500000000003 207.00000000000003 47.500000000000007 178.87500000000003 42.500000000000007 182.37500000000003
decision_type=2 2 2 2 2 2 2 2
left_child=-1 -2 -3 4 6 -6 7 -4
right_child=1 2 3 -5 5 -7 -8 -9
leaf_value=0.038341753929853443 0.041111202097426247 -0.045746880946190734 0.060743074119091037 -0.031425527934181068 0.085124628569768823 -0.015644749191900096 -0.056708387471735483 -0.036404994815588003
leaf_weight=22 26 38 30 38 23 24 26 25
leaf_count=22 26 38 30 38 23 24 26 25
internal_value=0 -0.00366747 -0.00937456 -0.00104836 0.00796986 0.0336679 -0.00694137 0.0165849
internal_weight=0 230 204 166 128 47 81 55
internal_count=252 230 204 166 128 47 81 55
is_linear=0
shrinkage=0.1


Tree=89
num_leaves=9
num_cat=0
split_feature=1 2 1 0 1 2 0 2
split_gain=4.05393 4.25035 6.31856 8.297 5.25634 9.31038 15.8615 2.17314
threshold=205.62500000000003 67.125000000000014 151.37500000000003 37.500000000000007 164.75000000000003 70.125000000000014 47.500000000000007 72.125000000000014
decision_type=2 2 2 2 2 2 2 2
left_child=1 -1 -3 -4 -5 -6 -7 -2
right_child=7 2 3 4 5 6 -8 -9
leaf_value=-0.043518659873650625 0.052218061387538907 0.044361299952423133 -0.049409166018705111 0.040218021203913996 0.030747176797406097 -0.084064215575826592 0.027137487414090528 0.0066728922115130863
leaf_weight=26 20 27 37 31 37 29 23 22
leaf_count=26 20 27 37 31 37 29 23 22
internal_value=0 -0.00567221 -0.000324347 -0.00800914 0.00475587 -0.00759612 -0.0348788 0.0283611
internal_weight=0 210 184 157 120 89 52 42
internal_count=252 210 184 157 120 89 52 42
is_linear=0
shrinkage=0.1


Tree=90
num_leaves=11
num_cat=0
split_feature=0 1 1 2 1 0 1 2 0 0
split_gain=3.97885 5.50284 12.0571 10.9283 25.552 7.83036 13.1327 7.51215 22.4168 6.94062
threshold=26.500000000000004 184.50000000000003 178.12500000000003 69.875000000000014 168.12500000000003 46.500000000000007 155.37500000000003 73.375000000000014 42.500000000000007 52.500000000000007
decision_type=2 2 2 2 2 2 2 2 2 2
left_child=-1 2 3 5 -5 6 -2 8 -3 -10
right_child=1 7 -4 4 -6 -7 -8 -9 9 -11
leaf_value=0.042796422634273773 -0.054123287796974187 -0.082139567759903998 -0.087499207779765137 -0.027951094242078919 0.12004130043089389 -0.058720765167321914 0.059102123062170692 0.066956143284385858 0.085188362859189515 0.0018779786862432959
leaf_weight=20 20 22 20 28 20 39 21 22 20 20
leaf_count=20 20 22 20 28 20 39 21 22 20 20
internal_value=0 -0.00368935 -0.015292 -0.00400965 0.0337124 -0.0266429 0.00387022 0.0167535 -0.00106038 0.0435332
internal_weight=0 232 148 128 48 80 41 84 62 40
internal_count=252 232 148 128 48 80 41 84 62 40
is_linear=0
shrinkage=0.1


Tree=91
num_leaves=10
num_cat=0
split_feature=2 0 0 0 0 1 2 2 2
split_gain=3.92244 5.36776 7.63345 6.65186 5.16798 15.4369 19.6375 11.4399 9.73025
threshold=66.875000000000014 34.500000000000007 27.500000000000004 39.500000000000007 48.500000000000007 167.62500000000003 71.125000000000014 68.625000000000014 70.375000000000014
decision_type=2 2 2 2 2 2 2 2 2
left_child=-1 2 -2 -3 5 -5 -7 -6 -9
right_child=1 3 -4 4 7 6 -8 8 -10
leaf_value=0.040339511700651864 -0.014692340493202212 -0.066366583853960034 0.062698346347762987 -0.050978330121590545 0.032213134504854683 -0.027950194316065831 0.093189115193672484 -0.10488891340792179 -0.016493847242302514
leaf_weight=22 25 20 26 26 25 23 32 20 33
leaf_count=22 25 20 26 26 25 23 32 20 33
internal_value=0 -0.00385856 0.0247617 -0.0120129 -0.00517601 0.0125156 0.0425309 -0.023548 -0.0498505
internal_weight=0 230 51 179 159 81 55 78 53
internal_count=252 230 51 179 159 81 55 78 53
is_linear=0
shrinkage=0.1


Tree=92
num_leaves=11
num_cat=0
split_feature=2 1 0 1 0 0 2 1 0 2
split_gain=3.48501 21.495 13.3002 10.3044 9.40473 10.9181 20.6269 23.8771 16.8514 9.19049
threshold=70.875000000000014 170.00000000000003 48.500000000000007 201.12500000000003 32.500000000000007 50.500000000000007 68.125000000000014 170.00000000000003 56.500000000000007 72.625000000000014
decision_type=2 2 2 2 2 2 2 2 2 2
left_child=4 -2 3 9 -1 6 -6 -8 -7 -3
right_child=1 2 -4 -5 5 8 7 -9 -10 -11
leaf_value=0.073724296167492862 -0.10439880401605653 0.11025508612394333 -0.060474410936945971 -0.020561663325255119 -0.1017138803222527 0.10087691721591084 0.09452328573912383 -0.052069203138351443 -0.010812159968273982 0.014388024974614383
leaf_weight=20 21 20 21 24 24 22 20 25 35 20
leaf_count=20 21 20 21 24 24 22 20 25 35 20
internal_value=0 -0.0138015 0.00858141 0.0312403 0.0100202 -9.15152e-05 -0.0268463 0.013083 0.0322959 0.0623216
internal_weight=0 106 85 64 146 126 69 45 57 40
internal_count=252 106 85 64 146 126 69 45 57 40
is_linear=0
shrinkage=0.1


Tree=93
num_leaves=10
num_cat=0
split_feature=2 1 2 1 0 1 0 2 0
split_gain=3.7091 5.13756 5.1456 8.1076 5.46764 4.4912 14.5662 16.1004 4.21903
threshold=66.875000000000014 150.62500000000003 70.625000000000014 162.87500000000003 51.500000000000007 173.00000000000003 48.500000000000007 72.875000000000014 41.500000000000007
decision_type=2 2 2 2 2 2 2 2 2
left_child=-1 -2 3 -3 8 -4 7 -7 -5
right_child=1 2 5 4 -6 6 -8 -9 -10
leaf_value=0.039227131144566968 0.038112056241012542 -0.072461190819740298 0.041113868079803606 0.0032393326610326771 0.028348355310467574 0.067728268401697281 -0.077741129341579618 -0.035146499010894831 -0.060221313786777586
leaf_weight=22 26 27 27 20 26 32 21 29 22
leaf_count=22 26 27 27 20 26 32 21 29 22
internal_value=0 -0.00375216 -0.0090878 -0.0260998 -0.00769154 0.00573915 -0.00590863 0.0188206 -0.030002
internal_weight=0 230 204 95 68 109 82 61 42
internal_count=252 230 204 95 68 109 82 61 42
is_linear=0
shrinkage=0.1


Tree=94
num_leaves=10
num_cat=0
split_feature=1 0 2 2 2 1 1 1 0
split_gain=3.54081 4.52349 4.80486 5.86097 11.5456 15.7862 10.0215 8.16701 1.90075
threshold=205.62500000000003 30.500000000000004 67.125000000000014 71.125000000000014 69.625000000000014 168.37500000000003 184.50000000000003 153.62500000000003 41.500000000000007
decision_type=2 2 2 2 2 2 2 2 2
left_child=1 -1 -3 4 5 7 -5 -4 -2
right_child=8 2 3 6 -6 -7 -8 -9 -10
leaf_value=-0.040568455380778162 0.0062220841053534648 -0.040829836701353393 -0.0078219420187884865 -0.055155421770177786 0.071207056846469649 -0.062872824957594275 0.031382818827810494 0.080371599467027766 0.048817287348210815
leaf_weight=31 22 24 21 32 32 26 23 21 20
leaf_count=31 22 24 21 32 32 26 23 21 20
internal_value=0 -0.0053011 0.00080665 0.00725359 0.0216748 -0.00163457 -0.0189667 0.0362748 0.0265055
internal_weight=0 210 179 155 100 68 55 42 42
internal_count=252 210 179 155 100 68 55 42 42
is_linear=0
shrinkage=0.1


Tree=95
num_leaves=11
num_cat=0
split_feature=2 1 2 1 1 1 0 2 0 0
split_gain=3.66205 4.36453 4.71149 8.0211 6.39354 4.45915 12.6148 13.3275 24.3572 3.50565
threshold=66.875000000000014 150.62500000000003 70.625000000000014 176.50000000000003 192.37500000000003 173.00000000000003 48.500000000000007 72.125000000000014 39.500000000000007 42.500000000000007
decision_type=2 2 2 2 2 2 2 2 2 2
left_child=-1 -2 3 9 -5 -4 7 -7 -9 -3
right_child=1 2 5 4 -6 6 -8 8 -10 -11
leaf_value=0.038977535881779414 0.034858022547828466 -0.020061033740639687 0.040789837417779147 0.040963265703370173 -0.034591485156367223 0.083873268961906444 -0.072912486394246426 -0.090916427783668041 0.063282382190227512 -0.074110750009616214
leaf_weight=22 26 20 27 24 21 20 21 21 20 30
leaf_count=22 26 20 27 24 21 20 21 21 20 30
internal_value=0 -0.00372829 -0.00864615 -0.0249247 0.00570438 0.00554157 -0.00606456 0.0169487 -0.0156975 -0.0524909
internal_weight=0 230 204 95 45 109 82 61 41 50
internal_count=252 230 204 95 45 109 82 61 41 50
is_linear=0
shrinkage=0.1


Tree=96
num_leaves=10
num_cat=0
split_feature=0 0 1 1 2 1 1 0 2
split_gain=3.79711 5.298 9.66412 25.7717 7.10645 9.11389 19.3428 14.1345 7.02885
threshold=26.500000000000004 41.500000000000007 200.37500000000003 168.12500000000003 72.875000000000014 182.37500000000003 157.87500000000003 48.500000000000007 70.125000000000014
decision_type=2 2 2 2 2 2 2 2 2
left_child=-1 2 3 -2 5 6 -3 -8 -7
right_child=1 4 -4 -5 -6 8 7 -9 -10
leaf_value=0.041807598657906057 -0.063772642883387479 0.058984475910212053 -0.082552604554664524 0.066664330508293845 -0.043577837296154193 0.098258428350090979 0.016909672141075135 -0.085695290462724102 0.014420216381549836
leaf_weight=20 33 33 21 28 23 20 25 29 20
leaf_count=20 33 33 21 28 23 20 25 29 20
internal_value=0 -0.0036041 -0.0240427 -0.00389993 0.00756899 0.0168318 -0.00133257 -0.038193 0.0563393
internal_weight=0 232 82 61 150 127 87 54 40
internal_count=252 232 82 61 150 127 87 54 40
is_linear=0
shrinkage=0.1


Tree=97
num_leaves=10
num_cat=0
split_feature=1 0 1 1 2 2 0 2 1
split_gain=3.83028 3.89165 21.806 17.0777 10.0324 8.25208 6.79535 5.45279 1.40216
threshold=205.62500000000003 52.500000000000007 192.37500000000003 153.62500000000003 69.375000000000014 70.125000000000014 41.500000000000007 71.625000000000014 219.07500000000002
decision_type=2 2 2 2 2 2 2 2 2
left_child=1 2 3 -1 -3 6 -5 -7 -2
right_child=8 4 -4 5 -6 7 -8 -9 -10
leaf_value=-0.059496566066236212 0.045839160086498382 -0.017190468311309815 -0.10139391973304253 0.015728290170608533 0.067828878144855095 -0.040609151260419328 0.095256098766218544 0.024935786475737892 0.0092961778952961871
leaf_weight=33 21 35 24 21 23 22 22 30 21
leaf_count=33 21 35 24 21 23 22 22 30 21
internal_value=0 -0.00551354 -0.0139226 0.00247823 0.0165241 0.0240063 0.0564169 -0.00279476 0.0275677
internal_weight=0 210 152 128 58 95 43 52 42
internal_count=252 210 152 128 58 95 43 52 42
is_linear=0
shrinkage=0.1


Tree=98
num_leaves=9
num_cat=0
split_feature=0 1 0 2 0 1 1 2
split_gain=3.18591 12.5627 5.77468 5.73912 6.85953 3.78321 15.6408 10.9305
threshold=34.500000000000007 149.00000000000003 27.500000000000004 69.375000000000014 52.500000000000007 184.50000000000003 173.00000000000003 72.375000000000014
decision_type=2 2 2 2 2 2 2 2
left_child=2 -2 -1 4 -3 6 -5 -7
right_child=1 3 -4 5 -6 7 -8 -9
leaf_value=-0.010604091982046765 -0.077069853440943095 0.058784654191836261 0.055424713042493051 0.011379988262695926 -0.0091801400537844056 -0.031006415308836629 -0.099476766884326939 0.053365309855767665
leaf_weight=27 22 33 26 35 27 34 20 28
leaf_count=27 22 33 26 35 27 34 20 28
internal_value=0 -0.00580267 0.0217874 0.00305539 0.0282005 -0.00983953 -0.0289316 0.00709694
internal_weight=0 199 53 177 60 117 55 62
internal_count=252 199 53 177 60 117 55 62
is_linear=0
shrinkage=0.1


Tree=99
num_leaves=10
num_cat=0
split_feature=0 1 2 1 1 0 1 1 2
split_gain=3.1877 4.22518 8.67937 12.8217 10.1462 8.00644 19.0295 5.90944 3.22027
threshold=26.500000000000004 216.12500000000003 67.125000000000014 152.50000000000003 161.12500000000003 46.500000000000007 191.25000000000003 178.87500000000003 70.375000000000014
decision_type=2 2 2 2 2 2 2 2 2
left_child=-1 2 -2 -4 -5 6 8 -7 -6
right_child=1 -3 3 4 5 7 -8 -9 -10
leaf_value=0.038306052237749105 -0.063241164147853857 0.035530100703239441 0.060562459584967844 -0.070228090077638625 -0.015745878830552101 0.061100522235587797 -0.10578266047639773 -0.0028912951869349327 0.035010520458221436
leaf_weight=20 25 25 29 25 25 27 20 31 25
leaf_count=20 25 25 29 25 25 27 20 31 25
internal_value=0 -0.00330224 -0.00799214 -0.00040299 -0.0119585 -0.00057776 -0.0233434 0.026898 0.00963232
internal_weight=0 232 207 182 153 128 70 58 50
internal_count=252 232 207 182 153 128 70 58 50
is_linear=0
shrinkage=0.1


end of trees

feature_importances:
Column_1=351
Column_2=267
Column_0=256

parameters:
[boosting: gbdt]
[objective: regression]
[metric: l2]
[tree_learner: serial]
[device_type: cpu]
[data: ]
[valid: ]
[num_iterations: 100]
[learning_rate: 0.1]
[num_leaves: 31]
[num_threads: -1]
[deterministic: 0]
[force_col_wise: 0]
[force_row_wise: 0]
[histogram_pool_size: -1]
[max_depth: -1]
[min_data_in_leaf: 20]
[min_sum_hessian_in_leaf: 0.001]
[bagging_fraction: 1]
[pos_bagging_fraction: 1]
[neg_bagging_fraction: 1]
[bagging_freq: 0]
[bagging_seed: 3]
[feature_fraction: 1]
[feature_fraction_bynode: 1]
[feature_fraction_seed: 2]
[extra_trees: 0]
[extra_seed: 6]
[early_stopping_round: 0]
[first_metric_only: 0]
[max_delta_step: 0]
[lambda_l1: 0]
[lambda_l2: 0]
[linear_lambda: 0]
[min_gain_to_split: 0]
[drop_rate: 0.1]
[max_drop: 50]
[skip_drop: 0.5]
[xgboost_dart_mode: 0]
[uniform_drop: 0]
[drop_seed: 4]
[top_rate: 0.2]
[other_rate: 0.1]
[min_data_per_group: 100]
[max_cat_threshold: 32]
[cat_l2: 10]
[cat_smooth: 10]
[max_cat_to_onehot: 4]
[top_k: 20]
[monotone_constraints: ]
[monotone_constraints_method: basic]
[monotone_penalty: 0]
[feature_contri: ]
[forcedsplits_filename: ]
[refit_decay_rate: 0.9]
[cegb_tradeoff: 1]
[cegb_penalty_split: 0]
[cegb_penalty_feature_lazy: ]
[cegb_penalty_feature_coupled: ]
[path_smooth: 0]
[interaction_constraints: ]
[verbosity: -1]
[saved_feature_importance_type: 0]
[linear_tree: 0]
[max_bin: 255]
[max_bin_by_feature: ]
[min_data_in_bin: 3]
[bin_construct_sample_cnt: 200000]
[data_random_seed: 1]
[is_enable_sparse: 1]
[enable_bundle: 1]
[use_missing: 1]
[zero_as_missing: 0]
[feature_pre_filter: 1]
[pre_partition: 0]
[two_round: 0]
[header: 0]
[label_column: ]
[weight_column: ]
[group_column: ]
[ignore_column: ]
[categorical_feature: ]
[forcedbins_filename: ]
[precise_float_parser: 0]
[objective_seed: 5]
[num_class: 1]
[is_unbalance: 0]
[scale_pos_weight: 1]
[sigmoid: 1]
[boost_from_average: 1]
[reg_sqrt: 0]
[alpha: 0.9]
[fair_c: 1]
[poisson_max_delta_step: 0.7]
[tweedie_variance_power: 1.5]
[lambdarank_truncation_level: 30]
[lambdarank_norm: 1]
[label_gain: ]
[eval_at: ]
[multi_error_top_k: 1]
[auc_mu_weights: ]
[num_machines: 1]
[local_listen_port: 12400]
[time_out: 120]
[machine_list_filename: ]
[machines: ]
[gpu_platform_id: -1]
[gpu_device_id: -1]
[gpu_use_dp: 0]
[num_gpu: 1]

end of parameters

pandas_categorical:null
